tree
version=v4
num_class=2
num_tree_per_iteration=2
label_index=0
max_feature_idx=17
objective=multiclass num_class:2
feature_names=num_strikes total_call_oi total_put_oi pcr top_call_change_oi top_put_change_oi median_ce_iv median_pe_iv median_volume max_oi_strike atm_strike_proxy oi_skew_mean top_strike_oi_pct spot spot_note atm_strike oi_skew median_iv
feature_infos=none [931283:1067063] [930160:1069325] [0.95846483828747453:1.0427324392578132] [-1994:1999] [-1994:1997] none none [1000:9994] [21263:22199] none none none [21426.108541306548:22024.248354616702] none [21450:22000] [-41103:41731] [10.339410299718153:26.345376535986532]
tree_sizes=459 461 471 468 473 470 364 363 470 467 686 679 365 364 474 471 366 365 474 471 365 364 473 470 581 576 579 574 692 685 1011 998 688 681 576 571 689 682 687 680 582 577 688 681 689 682 792 783 581 576 791 784 793 786 791 784 794 787 792 785 786 779 1009 998 906 895 901 892 900 891 900 891 894 885 896 887 793 786 901 892 901 892 792 785 788 781 1005 994 901 892 895 886 1004 993 1007 996 897 888 793 786 1006 995 1116 1103 903 894 900 891 1008 997 794 787 1011 1000 1107 1094 1114 1101 898 889 900 891 904 895 1005 994 798 791 903 894 1120 1107 1012 1001 797 790 1121 1108 1229 1214 1124 1111 1013 1002 908 899 1120 1107 910 901 1015 1004 909 900 802 795 800 793 903 894 909 900 908 899 803 796 799 792 908 899 907 898 1017 1006 1016 1005 907 898 909 900 1127 1114 1348 1331 1122 1109 1664 1641 1018 1007 1235 1220 1126 1113 906 897 1021 1010 1347 1330 1015 1004 1125 1112 1126 1113 1017 1006 907 898 910 901 1016 1005 911 902 1239 1224 912 903 913 904 912 903 803 796 913 904 911 902 1022 1011 914 905 804 797 910 901 803 796 1023 1012

Tree=0
num_leaves=3
num_cat=0
split_feature=9 1
split_gain=1587.53 1.13687e-13
threshold=21357.000000000004 1021079.5000000001
decision_type=2 2
left_child=-1 -2
right_child=1 -3
leaf_value=-0.64375667036375339 -0.7434445753557366 -0.7434445753557366
leaf_weight=800.99990451335907 569.99993205070496 226.49997299909592
leaf_count=1602 1140 453
internal_value=-0.69346 -0.743445
internal_weight=1597.5 796.5
internal_count=3195 1593
is_linear=0
shrinkage=1


Tree=1
num_leaves=3
num_cat=0
split_feature=9 1
split_gain=1587.53 1.13687e-13
threshold=21357.000000000004 1021079.5000000001
decision_type=2 2
left_child=-1 -2
right_child=1 -3
leaf_value=-0.74253778871828469 -0.64284988372630136 -0.64284988372630136
leaf_weight=800.99990451335907 569.99993205070496 226.49997299909592
leaf_count=1602 1140 453
internal_value=-0.692834 -0.64285
internal_weight=1597.5 796.5
internal_count=3195 1593
is_linear=0
shrinkage=1


Tree=2
num_leaves=3
num_cat=0
split_feature=9 1
split_gain=1436.43 1.13687e-13
threshold=21357.000000000004 999609.50000000012
decision_type=2 2
left_child=-1 -2
right_child=1 -3
leaf_value=0.047335651534556399 -0.047607485913821489 -0.047607485913821489
leaf_weight=799.04920792579651 401.4834588766098 393.0049262046814
leaf_count=1602 805 788
internal_value=-5.00372e-08 -0.0476075
internal_weight=1593.54 794.488
internal_count=3195 1593
is_linear=0
shrinkage=0.05


Tree=3
num_leaves=3
num_cat=0
split_feature=9 1
split_gain=1436.43 1.13687e-13
threshold=21357.000000000004 999609.50000000012
decision_type=2 2
left_child=-1 -2
right_child=1 -3
leaf_value=-0.047335651534556399 0.047607485913821489 0.047607485913821489
leaf_weight=799.04920792579651 401.4834588766098 393.0049262046814
leaf_count=1602 805 788
internal_value=5.00372e-08 0.0476075
internal_weight=1593.54 794.488
internal_count=3195 1593
is_linear=0
shrinkage=0.05


Tree=4
num_leaves=3
num_cat=0
split_feature=9 1
split_gain=1305.88 1.13687e-13
threshold=21357.000000000004 975631.00000000012
decision_type=2 2
left_child=-1 -2
right_child=1 -3
leaf_value=0.04528768824160697 -0.045554217401819766 -0.045554217401819766
leaf_weight=793.55237621068954 201.06654578447342 587.84726563096046
leaf_count=1602 406 1187
internal_value=-1.25538e-07 -0.0455542
internal_weight=1582.47 788.914
internal_count=3195 1593
is_linear=0
shrinkage=0.05


Tree=5
num_leaves=3
num_cat=0
split_feature=9 1
split_gain=1305.88 1.13687e-13
threshold=21357.000000000004 975631.00000000012
decision_type=2 2
left_child=-1 -2
right_child=1 -3
leaf_value=-0.04528768824160697 0.045554217401819766 0.045554217401819766
leaf_weight=793.55237621068954 201.06654578447342 587.84726563096046
leaf_count=1602 406 1187
internal_value=1.25538e-07 0.0455542
internal_weight=1582.47 788.914
internal_count=3195 1593
is_linear=0
shrinkage=0.05


Tree=6
num_leaves=2
num_cat=0
split_feature=9
split_gain=1192.05
threshold=21357.000000000004
decision_type=2
left_child=-1
right_child=-2
leaf_value=0.043500194824892285 -0.043764330429349352
leaf_weight=785.0602240562439 780.32993361353874
leaf_count=1602 1593
internal_value=-2.19985e-07
internal_weight=1565.39
internal_count=3195
is_linear=0
shrinkage=0.05


Tree=7
num_leaves=2
num_cat=0
split_feature=9
split_gain=1192.05
threshold=21357.000000000004
decision_type=2
left_child=-1
right_child=-2
leaf_value=-0.043500194824892285 0.043764330429349352
leaf_weight=785.0602240562439 780.32993361353874
leaf_count=1602 1593
internal_value=2.19985e-07
internal_weight=1565.39
internal_count=3195
is_linear=0
shrinkage=0.05


Tree=8
num_leaves=3
num_cat=0
split_feature=9 1
split_gain=1092.02 1.13687e-13
threshold=21357.000000000004 1059688.5000000002
decision_type=2 2
left_child=-1 -2
right_child=1 -3
leaf_value=0.041927636091934894 -0.042191740637277736 -0.042191740637277736
leaf_weight=774.05357444286346 758.11420142650604 11.106131613254545
leaf_count=1602 1570 23
internal_value=-3.293e-07 -0.0421917
internal_weight=1543.27 769.22
internal_count=3195 1593
is_linear=0
shrinkage=0.05


Tree=9
num_leaves=3
num_cat=0
split_feature=9 1
split_gain=1092.02 1.13687e-13
threshold=21357.000000000004 1059688.5000000002
decision_type=2 2
left_child=-1 -2
right_child=1 -3
leaf_value=-0.041927636091934894 0.042191740637277736 0.042191740637277736
leaf_weight=774.05357444286346 758.11420142650604 11.106131613254545
leaf_count=1602 1570 23
internal_value=3.293e-07 0.0421917
internal_weight=1543.27 769.22
internal_count=3195 1593
is_linear=0
shrinkage=0.05


Tree=10
num_leaves=5
num_cat=0
split_feature=9 1 1 2
split_gain=1003.52 1.13687e-13 3.55271e-15 3.55271e-15
threshold=21357.000000000004 1050746.0000000002 1058373.0000000002 1045586.5000000001
decision_type=2 2 2 2
left_child=-1 -2 3 -3
right_child=1 2 -4 -5
leaf_value=0.040534512208411005 -0.040800561758063611 -0.040800561758063597 -0.040800561758063611 -0.040800561758063611
leaf_weight=760.95266407728195 717.09176072478294 15.186589241027834 13.288265585899351 10.440780103206633
leaf_count=1602 1511 32 28 22
internal_value=-4.49177e-07 -0.0408006 -0.0408006 -0.0408006
internal_weight=1516.96 756.007 38.9156 25.6274
internal_count=3195 1593 82 54
is_linear=0
shrinkage=0.05


Tree=11
num_leaves=5
num_cat=0
split_feature=9 1 1 2
split_gain=1003.52 1.13687e-13 3.55271e-15 3.55271e-15
threshold=21357.000000000004 1050746.0000000002 1058373.0000000002 1045586.5000000001
decision_type=2 2 2 2
left_child=-1 -2 3 -3
right_child=1 2 -4 -5
leaf_value=-0.040534512208411005 0.040800561758063611 0.040800561758063597 0.040800561758063611 0.040800561758063611
leaf_weight=760.95266407728195 717.09176072478294 15.186589241027834 13.288265585899351 10.440780103206633
leaf_count=1602 1511 32 28 22
internal_value=4.49177e-07 0.0408006 0.0408006 0.0408006
internal_weight=1516.96 756.007 38.9156 25.6274
internal_count=3195 1593 82 54
is_linear=0
shrinkage=0.05


Tree=12
num_leaves=2
num_cat=0
split_feature=9
split_gain=924.741
threshold=21357.000000000004
decision_type=2
left_child=-1
right_child=-2
leaf_value=0.039292727265380849 -0.03956242293133086
leaf_weight=746.12492555379868 741.06047773361206
leaf_count=1602 1593
internal_value=-5.81523e-07
internal_weight=1487.19
internal_count=3195
is_linear=0
shrinkage=0.05


Tree=13
num_leaves=2
num_cat=0
split_feature=9
split_gain=924.741
threshold=21357.000000000004
decision_type=2
left_child=-1
right_child=-2
leaf_value=-0.039292727265380849 0.03956242293133086
leaf_weight=746.12492555379868 741.06047773361206
leaf_count=1602 1593
internal_value=5.81523e-07
internal_weight=1487.19
internal_count=3195
is_linear=0
shrinkage=0.05


Tree=14
num_leaves=3
num_cat=0
split_feature=9 1
split_gain=854.246 1.13687e-13
threshold=21357.000000000004 1059688.5000000002
decision_type=2 2
left_child=-1 -2
right_child=1 -3
leaf_value=0.038179750174716275 -0.038454580567783683 -0.038454580567783683
leaf_weight=729.89162367582321 714.23917591571808 10.463376462459562
leaf_count=1602 1570 23
internal_value=-7.23804e-07 -0.0384546
internal_weight=1454.59 724.703
internal_count=3195 1593
is_linear=0
shrinkage=0.05


Tree=15
num_leaves=3
num_cat=0
split_feature=9 1
split_gain=854.246 1.13687e-13
threshold=21357.000000000004 1059688.5000000002
decision_type=2 2
left_child=-1 -2
right_child=1 -3
leaf_value=-0.038179750174716275 0.038454580567783683 0.038454580567783683
leaf_weight=729.89162367582321 714.23917591571808 10.463376462459562
leaf_count=1602 1570 23
internal_value=7.23804e-07 0.0384546
internal_weight=1454.59 724.703
internal_count=3195 1593
is_linear=0
shrinkage=0.05


Tree=16
num_leaves=2
num_cat=0
split_feature=9
split_gain=790.862
threshold=21357.000000000004
decision_type=2
left_child=-1
right_child=-2
leaf_value=0.037177291392441462 -0.037458590269068177
leaf_weight=712.53334593772888 707.21562168002129
leaf_count=1602 1593
internal_value=-8.73658e-07
internal_weight=1419.75
internal_count=3195
is_linear=0
shrinkage=0.05


Tree=17
num_leaves=2
num_cat=0
split_feature=9
split_gain=790.862
threshold=21357.000000000004
decision_type=2
left_child=-1
right_child=-2
leaf_value=-0.037177291392441462 0.037458590269068177
leaf_weight=712.53334593772888 707.21562168002129
leaf_count=1602 1593
internal_value=8.73658e-07
internal_weight=1419.75
internal_count=3195
is_linear=0
shrinkage=0.05


Tree=18
num_leaves=3
num_cat=0
split_feature=9 1
split_gain=733.629 5.68434e-14
threshold=21357.000000000004 1032419.5000000001
decision_type=2 2
left_child=-1 -2
right_child=1 -3
leaf_value=0.036270339649636434 -0.036559334687101472 -0.036559334687101472
leaf_weight=694.29506331682205 568.20052671432495 120.6453173160553
leaf_count=1602 1314 279
internal_value=-1.03243e-06 -0.0365593
internal_weight=1383.14 688.846
internal_count=3195 1593
is_linear=0
shrinkage=0.05


Tree=19
num_leaves=3
num_cat=0
split_feature=9 1
split_gain=733.629 5.68434e-14
threshold=21357.000000000004 1032419.5000000001
decision_type=2 2
left_child=-1 -2
right_child=1 -3
leaf_value=-0.036270339649636434 0.036559334687101472 0.036559334687101472
leaf_weight=694.29506331682205 568.20052671432495 120.6453173160553
leaf_count=1602 1314 279
internal_value=1.03243e-06 0.0365593
internal_weight=1383.14 688.846
internal_count=3195 1593
is_linear=0
shrinkage=0.05


Tree=20
num_leaves=2
num_cat=0
split_feature=9
split_gain=681.751
threshold=21357.000000000004
decision_type=2
left_child=-1
right_child=-2
leaf_value=0.035446454598494513 -0.035744292209609278
leaf_weight=675.39023619890213 669.80775940418243
leaf_count=1602 1593
internal_value=-1.20052e-06
internal_weight=1345.2
internal_count=3195
is_linear=0
shrinkage=0.05


Tree=21
num_leaves=2
num_cat=0
split_feature=9
split_gain=681.751
threshold=21357.000000000004
decision_type=2
left_child=-1
right_child=-2
leaf_value=-0.035446454598494513 0.035744292209609278
leaf_weight=675.39023619890213 669.80775940418243
leaf_count=1602 1593
internal_value=1.20052e-06
internal_weight=1345.2
internal_count=3195
is_linear=0
shrinkage=0.05


Tree=22
num_leaves=3
num_cat=0
split_feature=9 1
split_gain=634.565 5.68434e-14
threshold=21357.000000000004 1055016.0000000002
decision_type=2 2
left_child=-1 -2
right_child=1 -3
leaf_value=0.034695245803509286 -0.035003007493436919 -0.035003007493436919
leaf_weight=656.00449061393738 631.51001307368279 18.777931869029999
leaf_count=1602 1547 46
internal_value=-1.37547e-06 -0.035003
internal_weight=1306.29 650.288
internal_count=3195 1593
is_linear=0
shrinkage=0.05


Tree=23
num_leaves=3
num_cat=0
split_feature=9 1
split_gain=634.565 5.68434e-14
threshold=21357.000000000004 1055016.0000000002
decision_type=2 2
left_child=-1 -2
right_child=1 -3
leaf_value=-0.034695245803509286 0.035003007493436919 0.035003007493436919
leaf_weight=656.00449061393738 631.51001307368279 18.777931869029999
leaf_count=1602 1547 46
internal_value=1.37547e-06 0.035003
internal_weight=1306.29 650.288
internal_count=3195 1593
is_linear=0
shrinkage=0.05


Tree=24
num_leaves=4
num_cat=0
split_feature=9 1 1
split_gain=591.51 5.68434e-14 7.10543e-15
threshold=21357.000000000004 1041742.5000000001 1048157.0000000001
decision_type=2 2 2
left_child=-1 -2 -3
right_child=1 2 -4
leaf_value=0.034007951036734596 -0.034326686072937977 -0.034326686072937977 -0.034326686072937977
leaf_weight=636.29896026849747 567.52214741706848 20.975365281105042 41.950730562210083
leaf_count=1602 1434 53 106
internal_value=-1.55915e-06 -0.0343267 -0.0343267
internal_weight=1266.75 630.448 62.9261
internal_count=3195 1593 159
is_linear=0
shrinkage=0.05


Tree=25
num_leaves=4
num_cat=0
split_feature=9 1 1
split_gain=591.51 5.68434e-14 7.10543e-15
threshold=21357.000000000004 1041742.5000000001 1048157.0000000001
decision_type=2 2 2
left_child=-1 -2 -3
right_child=1 2 -4
leaf_value=-0.034007951036734596 0.034326686072937977 0.034326686072937977 0.034326686072937977
leaf_weight=636.29896026849747 567.52214741706848 20.975365281105042 41.950730562210083
leaf_count=1602 1434 53 106
internal_value=1.55915e-06 0.0343267 0.0343267
internal_weight=1266.75 630.448 62.9261
internal_count=3195 1593 159
is_linear=0
shrinkage=0.05


Tree=26
num_leaves=4
num_cat=0
split_feature=13 13 1
split_gain=552.466 0.452852 5.68434e-14
threshold=21440.441461015005 21456.62187505819 1059688.5000000002
decision_type=2 2 2
left_child=-1 -2 -3
right_child=1 2 -4
leaf_value=0.033242417870348026 -0.045643755217080896 -0.033707863945138049 -0.033707863945138049
leaf_weight=619.08908581733704 8.0534143447875959 590.88583660125732 8.8134722709655744
leaf_count=1609 21 1542 23
internal_value=-1.75466e-06 -0.033866 -0.0337079
internal_weight=1226.84 607.753 599.699
internal_count=3195 1586 1565
is_linear=0
shrinkage=0.05


Tree=27
num_leaves=4
num_cat=0
split_feature=13 13 1
split_gain=552.466 0.452852 5.68434e-14
threshold=21440.441461015005 21456.62187505819 1059688.5000000002
decision_type=2 2 2
left_child=-1 -2 -3
right_child=1 2 -4
leaf_value=-0.033242417870348026 0.045643755217080896 0.033707863945138049 0.033707863945138049
leaf_weight=619.08908581733704 8.0534143447875959 590.88583660125732 8.8134722709655744
leaf_count=1609 21 1542 23
internal_value=1.75466e-06 0.033866 0.0337079
internal_weight=1226.84 607.753 599.699
internal_count=3195 1586 1565
is_linear=0
shrinkage=0.05


Tree=28
num_leaves=5
num_cat=0
split_feature=9 13 13 1
split_gain=516.341 0.000749357 3.36567e-06 2.84217e-14
threshold=21357.000000000004 21447.730929124471 21520.733807880915 1055941.0000000002
decision_type=2 2 2 2
left_child=-1 -2 -3 -4
right_child=1 2 3 -5
leaf_value=0.032802552275864309 -0.033596748170848394 -0.033109760328167349 -0.033140168693950804 -0.033140168693950804
leaf_weight=596.66418725252151 9.1080828905105573 9.2467081844806653 557.36772060394287 14.823609590530394
leaf_count=1602 24 25 1504 40
internal_value=-2.16244e-06 -0.0331467 -0.0331397 -0.0331402
internal_weight=1187.21 590.546 581.438 572.191
internal_count=3195 1593 1569 1544
is_linear=0
shrinkage=0.05


Tree=29
num_leaves=5
num_cat=0
split_feature=9 13 13 1
split_gain=516.341 0.000749357 3.36567e-06 2.84217e-14
threshold=21357.000000000004 21447.730929124471 21520.733807880915 1055941.0000000002
decision_type=2 2 2 2
left_child=-1 -2 -3 -4
right_child=1 2 3 -5
leaf_value=-0.032802552275864309 0.033596748170848394 0.033109760328167349 0.033140168693950804 0.033140168693950804
leaf_weight=596.66418725252151 9.1080828905105573 9.2467081844806653 557.36772060394287 14.823609590530394
leaf_count=1602 24 25 1504 40
internal_value=2.16244e-06 0.0331467 0.0331397 0.0331402
internal_weight=1187.21 590.546 581.438 572.191
internal_count=3195 1593 1569 1544
is_linear=0
shrinkage=0.05


Tree=30
num_leaves=8
num_cat=0
split_feature=13 13 13 1 2 1 1
split_gain=483.368 0.47168 6.35907e-10 2.84217e-14 2.84217e-14 3.55271e-15 3.55271e-15
threshold=21440.441461015005 21456.62187505819 21520.733807880915 1037541.0000000001 1026450.0000000001 1059688.5000000002 1053198.0000000002
decision_type=2 2 2 2 2 2 2
left_child=-1 -2 -3 4 -4 6 -5
right_child=1 2 3 5 -6 -7 -8
leaf_value=0.032126790839760153 -0.045187590525171399 -0.032618590984196748 -0.032618128036876172 -0.032618128036876172 -0.032618128036876172 -0.032618128036876172 -0.032618128036876172
leaf_weight=579.41651901602745 7.564475178718566 7.5185403227806082 413.14831358194351 51.912049800157547 65.158572852611542 8.2343251407146436 14.320565462112425
leaf_count=1609 21 21 1154 145 182 23 40
internal_value=-2.36974e-06 -0.0327856 -0.0326181 -0.0326181 -0.0326181 -0.0326181 -0.0326181
internal_weight=1147.27 567.857 560.292 552.774 478.307 74.4669 66.2326
internal_count=3195 1586 1565 1544 1336 208 185
is_linear=0
shrinkage=0.05


Tree=31
num_leaves=8
num_cat=0
split_feature=13 13 13 1 2 1 1
split_gain=483.368 0.47168 6.35907e-10 2.84217e-14 2.84217e-14 3.55271e-15 3.55271e-15
threshold=21440.441461015005 21456.62187505819 21520.733807880915 1037541.0000000001 1026450.0000000001 1059688.5000000002 1053198.0000000002
decision_type=2 2 2 2 2 2 2
left_child=-1 -2 -3 4 -4 6 -5
right_child=1 2 3 5 -6 -7 -8
leaf_value=-0.032126790839760153 0.045187590525171399 0.032618590984196748 0.032618128036876172 0.032618128036876172 0.032618128036876172 0.032618128036876172 0.032618128036876172
leaf_weight=579.41651901602745 7.564475178718566 7.5185403227806082 413.14831358194351 51.912049800157547 65.158572852611542 8.2343251407146436 14.320565462112425
leaf_count=1609 21 21 1154 145 182 23 40
internal_value=2.36974e-06 0.0327856 0.0326181 0.0326181 0.0326181 0.0326181 0.0326181
internal_weight=1147.27 567.857 560.292 552.774 478.307 74.4669 66.2326
internal_count=3195 1586 1565 1544 1336 208 185
is_linear=0
shrinkage=0.05


Tree=32
num_leaves=5
num_cat=0
split_feature=9 13 13 1
split_gain=452.771 0.00274509 9.4874e-06 2.84217e-14
threshold=21357.000000000004 21447.730929124471 21520.733807880915 1058373.0000000002
decision_type=2 2 2 2
left_child=-1 -2 -3 -4
right_child=1 2 3 -5
leaf_value=0.031776032417021503 -0.033030912099060721 -0.032084077796143966 -0.032137013804288989 -0.032137013804288989
leaf_weight=557.1862621307373 8.7102011740207654 8.6006379723548871 523.81106042861938 9.6746106147766096
leaf_count=1602 24 25 1516 28
internal_value=-2.81329e-06 -0.0321503 -0.0321362 -0.032137
internal_weight=1107.98 550.797 542.086 533.486
internal_count=3195 1593 1569 1544
is_linear=0
shrinkage=0.05


Tree=33
num_leaves=5
num_cat=0
split_feature=9 13 13 1
split_gain=452.771 0.00274509 9.4874e-06 2.84217e-14
threshold=21357.000000000004 21447.730929124471 21520.733807880915 1058373.0000000002
decision_type=2 2 2 2
left_child=-1 -2 -3 -4
right_child=1 2 3 -5
leaf_value=-0.031776032417021503 0.033030912099060721 0.032084077796143966 0.032137013804288989 0.032137013804288989
leaf_weight=557.1862621307373 8.7102011740207654 8.6006379723548871 523.81106042861938 9.6746106147766096
leaf_count=1602 24 25 1516 28
internal_value=2.81329e-06 0.0321503 0.0321362 0.032137
internal_weight=1107.98 550.797 542.086 533.486
internal_count=3195 1593 1569 1544
is_linear=0
shrinkage=0.05


Tree=34
num_leaves=4
num_cat=0
split_feature=13 13 13
split_gain=424.674 0.4943 3.38693e-09
threshold=21440.441461015005 21456.62187505819 21520.733807880915
decision_type=2 2 2
left_child=-1 -2 -3
right_child=1 2 -4
leaf_value=0.031169971383362024 -0.04499873507048046 -0.031693826567508208 -0.03169271905375555
leaf_weight=540.25038367509842 7.0743817687034598 6.9970424473285666 514.3999342918396
leaf_count=1609 21 21 1544
internal_value=-3.03623e-06 -0.0318709 -0.0316927
internal_weight=1068.72 528.471 521.397
internal_count=3195 1586 1565
is_linear=0
shrinkage=0.05


Tree=35
num_leaves=4
num_cat=0
split_feature=13 13 13
split_gain=424.674 0.4943 3.38693e-09
threshold=21440.441461015005 21456.62187505819 21520.733807880915
decision_type=2 2 2
left_child=-1 -2 -3
right_child=1 2 -4
leaf_value=-0.031169971383362024 0.04499873507048046 0.031693826567508208 0.03169271905375555
leaf_weight=540.25038367509842 7.0743817687034598 6.9970424473285666 514.3999342918396
leaf_count=1609 21 21 1544
internal_value=3.03623e-06 0.0318709 0.0316927
internal_weight=1068.72 528.471 521.397
internal_count=3195 1586 1565
is_linear=0
shrinkage=0.05


Tree=36
num_leaves=5
num_cat=0
split_feature=9 13 13 1
split_gain=398.556 0.0057001 1.51018e-05 2.84217e-14
threshold=21357.000000000004 21447.730929124471 21520.733807880915 1059688.5000000002
decision_type=2 2 2 2
left_child=-1 -2 -3 -4
right_child=1 2 3 -5
leaf_value=0.030893080672267072 -0.032600567734010426 -0.031212272156125445 -0.031281662082937943 -0.031281662082937943
leaf_weight=518.51703798770905 8.3135046958923322 7.9671362042427054 488.19600284099579 7.3823195695877066
leaf_count=1602 24 25 1521 23
internal_value=-3.51554e-06 -0.031302 -0.0312806 -0.0312817
internal_weight=1030.38 511.859 503.545 495.578
internal_count=3195 1593 1569 1544
is_linear=0
shrinkage=0.05


Tree=37
num_leaves=5
num_cat=0
split_feature=9 13 13 1
split_gain=398.556 0.0057001 1.51018e-05 2.84217e-14
threshold=21357.000000000004 21447.730929124471 21520.733807880915 1059688.5000000002
decision_type=2 2 2 2
left_child=-1 -2 -3 -4
right_child=1 2 3 -5
leaf_value=-0.030893080672267072 0.032600567734010426 0.031212272156125445 0.031281662082937943 0.031281662082937943
leaf_weight=518.51703798770905 8.3135046958923322 7.9671362042427054 488.19600284099579 7.3823195695877066
leaf_count=1602 24 25 1521 23
internal_value=3.51554e-06 0.031302 0.0312806 0.0312817
internal_weight=1030.38 511.859 503.545 495.578
internal_count=3195 1593 1569 1544
is_linear=0
shrinkage=0.05


Tree=38
num_leaves=5
num_cat=0
split_feature=13 13 13 1
split_gain=374.43 0.519947 8.16942e-09 2.84217e-14
threshold=21440.441461015005 21456.62187505819 21520.733807880915 1053198.0000000002
decision_type=2 2 2 2
left_child=-1 -2 -3 -4
right_child=1 2 3 -5
leaf_value=0.030341247127674782 -0.045036880038974852 -0.03090248844113332 -0.030900702443563771 -0.030900702443563771
leaf_weight=502.14325824379921 6.5935305953025809 6.4898921549320212 457.60642433166504 19.466039657592773
leaf_count=1609 21 21 1481 63
internal_value=-3.75635e-06 -0.0310909 -0.0309007 -0.0309007
internal_weight=992.299 490.156 483.562 477.072
internal_count=3195 1586 1565 1544
is_linear=0
shrinkage=0.05


Tree=39
num_leaves=5
num_cat=0
split_feature=13 13 13 1
split_gain=374.43 0.519947 8.16942e-09 2.84217e-14
threshold=21440.441461015005 21456.62187505819 21520.733807880915 1053198.0000000002
decision_type=2 2 2 2
left_child=-1 -2 -3 -4
right_child=1 2 3 -5
leaf_value=-0.030341247127674782 0.045036880038974852 0.03090248844113332 0.030900702443563771 0.030900702443563771
leaf_weight=502.14325824379921 6.5935305953025809 6.4898921549320212 457.60642433166504 19.466039657592773
leaf_count=1609 21 21 1481 63
internal_value=3.75635e-06 0.0310909 0.0309007 0.0309007
internal_weight=992.299 490.156 483.562 477.072
internal_count=3195 1586 1565 1544
is_linear=0
shrinkage=0.05


Tree=40
num_leaves=4
num_cat=0
split_feature=9 13 13
split_gain=351.989 0.00940129 1.90312e-05
threshold=21357.000000000004 21447.730929124471 21520.733807880915
decision_type=2 2 2
left_child=-1 -2 -3
right_child=1 2 -4
leaf_value=0.030126743039619076 -0.032282500709248874 -0.030465997247046201 -0.030547071624012163
leaf_weight=481.12170624732971 7.9248881340026847 7.3543363213539115 458.92519879341125
leaf_count=1602 24 25 1544
internal_value=-4.27425e-06 -0.0305748 -0.0305458
internal_weight=955.326 474.204 466.28
internal_count=3195 1593 1569
is_linear=0
shrinkage=0.05


Tree=41
num_leaves=4
num_cat=0
split_feature=9 13 13
split_gain=351.989 0.00940129 1.90312e-05
threshold=21357.000000000004 21447.730929124471 21520.733807880915
decision_type=2 2 2
left_child=-1 -2 -3
right_child=1 2 -4
leaf_value=-0.030126743039619076 0.032282500709248874 0.030465997247046201 0.030547071624012163
leaf_weight=481.12170624732971 7.9248881340026847 7.3543363213539115 458.92519879341125
leaf_count=1602 24 25 1544
internal_value=4.27425e-06 0.0305748 0.0305458
internal_weight=955.326 474.204 466.28
internal_count=3195 1593 1569
is_linear=0
shrinkage=0.05


Tree=42
num_leaves=5
num_cat=0
split_feature=13 13 13 1
split_gain=331.133 0.547818 1.36864e-08 2.84217e-14
threshold=21440.441461015005 21456.62187505819 21520.733807880915 1054351.5000000002
decision_type=2 2 2 2
left_child=-1 -2 -3 -4
right_child=1 2 3 -5
leaf_value=0.029616916408250329 -0.045267771092366696 -0.03022072787260139 -0.030218324098492177 -0.030218324098492177
leaf_weight=465.48310044407845 6.1298564970493308 6.0022007524967185 426.59916794300079 14.572376132011412
leaf_count=1609 21 21 1493 51
internal_value=-4.53472e-06 -0.0304219 -0.0302184 -0.0302183
internal_weight=918.787 453.304 447.174 441.172
internal_count=3195 1586 1565 1544
is_linear=0
shrinkage=0.05


Tree=43
num_leaves=5
num_cat=0
split_feature=13 13 13 1
split_gain=331.133 0.547818 1.36864e-08 2.84217e-14
threshold=21440.441461015005 21456.62187505819 21520.733807880915 1054351.5000000002
decision_type=2 2 2 2
left_child=-1 -2 -3 -4
right_child=1 2 3 -5
leaf_value=-0.029616916408250329 0.045267771092366696 0.03022072787260139 0.030218324098492177 0.030218324098492177
leaf_weight=465.48310044407845 6.1298564970493308 6.0022007524967185 426.59916794300079 14.572376132011412
leaf_count=1609 21 21 1493 51
internal_value=4.53472e-06 0.0304219 0.0302184 0.0302183
internal_weight=918.787 453.304 447.174 441.172
internal_count=3195 1586 1565 1544
is_linear=0
shrinkage=0.05


Tree=44
num_leaves=5
num_cat=0
split_feature=9 13 13 1
split_gain=311.743 0.0136734 2.10839e-05 2.84217e-14
threshold=21357.000000000004 21447.730929124471 21520.733807880915 1059688.5000000002
decision_type=2 2 2 2
left_child=-1 -2 -3 -4
right_child=1 2 3 -5
leaf_value=0.029456063697590976 -0.032057339448676635 -0.029823335568966089 -0.029912288063322912 -0.029912288063322912
leaf_weight=445.32022297382355 7.5495985597372046 6.7679003775119773 417.52607783675194 6.3136750757694236
leaf_count=1602 24 25 1521 23
internal_value=-5.09049e-06 -0.0299479 -0.0299109 -0.0299123
internal_weight=883.477 438.157 430.608 423.84
internal_count=3195 1593 1569 1544
is_linear=0
shrinkage=0.05


Tree=45
num_leaves=5
num_cat=0
split_feature=9 13 13 1
split_gain=311.743 0.0136734 2.10839e-05 2.84217e-14
threshold=21357.000000000004 21447.730929124471 21520.733807880915 1059688.5000000002
decision_type=2 2 2 2
left_child=-1 -2 -3 -4
right_child=1 2 3 -5
leaf_value=-0.029456063697590976 0.032057339448676635 0.029823335568966089 0.029912288063322912 0.029912288063322912
leaf_weight=445.32022297382355 7.5495985597372046 6.7679003775119773 417.52607783675194 6.3136750757694236
leaf_count=1602 24 25 1521 23
internal_value=5.09049e-06 0.0299479 0.0299109 0.0299123
internal_weight=883.477 438.157 430.608 423.84
internal_count=3195 1593 1569 1544
is_linear=0
shrinkage=0.05


Tree=46
num_leaves=6
num_cat=0
split_feature=13 13 13 1 1
split_gain=293.609 0.57703 1.88093e-08 2.84217e-14 2.84217e-14
threshold=21440.441461015005 21456.62187505819 21520.733807880915 1059688.5000000002 1003113.0000000001
decision_type=2 2 2 2 2
left_child=-1 -2 -3 4 -4
right_child=1 2 3 -5 -6
leaf_value=0.028978373044039968 -0.045660117572299527 -0.029629963255260041 -0.029627029397866857 -0.029627029397866857 -0.029627029397866857
leaf_weight=430.53021571040154 5.6892552375793448 5.537382870912551 217.18166422843933 6.0621095597743979 183.70827665925026
leaf_count=1609 21 21 824 23 697
internal_value=-5.37249e-06 -0.0298452 -0.0296271 -0.029627 -0.029627
internal_weight=848.709 418.179 412.489 406.952 400.89
internal_count=3195 1586 1565 1544 1521
is_linear=0
shrinkage=0.05


Tree=47
num_leaves=6
num_cat=0
split_feature=13 13 13 1 1
split_gain=293.609 0.57703 1.88093e-08 2.84217e-14 2.84217e-14
threshold=21440.441461015005 21456.62187505819 21520.733807880915 1059688.5000000002 1003113.0000000001
decision_type=2 2 2 2 2
left_child=-1 -2 -3 4 -4
right_child=1 2 3 -5 -6
leaf_value=-0.028978373044039968 0.045660117572299527 0.029629963255260041 0.029627029397866857 0.029627029397866857 0.029627029397866857
leaf_weight=430.53021571040154 5.6892552375793448 5.537382870912551 217.18166422843933 6.0621095597743979 183.70827665925026
leaf_count=1609 21 21 824 23 697
internal_value=5.37249e-06 0.0298452 0.0296271 0.029627 0.029627
internal_weight=848.709 418.179 412.489 406.952 400.89
internal_count=3195 1586 1565 1544 1521
is_linear=0
shrinkage=0.05


Tree=48
num_leaves=4
num_cat=0
split_feature=9 13 13
split_gain=276.779 0.0183596 2.14901e-05
threshold=21357.000000000004 21447.730929124471 21520.733807880915
decision_type=2 2 2
left_child=-1 -2 -3
right_child=1 2 -4
leaf_value=0.028864476938789942 -0.031908489180048974 -0.029267087547446786 -0.029360825450450184
leaf_weight=411.32035332918167 7.1915147304534903 6.2115672230720511 390.5253701210022
leaf_count=1602 24 25 1544
internal_value=-5.96778e-06 -0.0294047 -0.0293594
internal_weight=815.249 403.928 396.737
internal_count=3195 1593 1569
is_linear=0
shrinkage=0.05


Tree=49
num_leaves=4
num_cat=0
split_feature=9 13 13
split_gain=276.779 0.0183596 2.14901e-05
threshold=21357.000000000004 21447.730929124471 21520.733807880915
decision_type=2 2 2
left_child=-1 -2 -3
right_child=1 2 -4
leaf_value=-0.028864476938789942 0.031908489180048974 0.029267087547446786 0.029360825450450184
leaf_weight=411.32035332918167 7.1915147304534903 6.2115672230720511 390.5253701210022
leaf_count=1602 24 25 1544
internal_value=5.96778e-06 0.0294047 0.0293594
internal_weight=815.249 403.928 396.737
internal_count=3195 1593 1569
is_linear=0
shrinkage=0.05


Tree=50
num_leaves=6
num_cat=0
split_feature=13 3 13 13 1
split_gain=260.928 8.70263 0.606583 2.26327e-08 1.42109e-14
threshold=21440.441461015005 0.99483372180813745 21456.62187505819 21520.733807880915 1059688.5000000002
decision_type=2 2 2 2 2
left_child=1 -1 -2 -4 -5
right_child=2 -3 3 4 -6
leaf_value=0.029195424708776577 -0.046183289468710365 -0.041354172832827392 -0.029115475631341182 -0.029112121398624149 -0.029112121398624149
leaf_weight=393.02594944834709 5.275936245918273 4.4203692674636832 5.0975516885519019 368.99241498112679 5.5797669589519492
leaf_count=1597 21 12 21 1521 23
internal_value=-6.27533e-06 0.0284108 -0.0293461 -0.0291122 -0.0291121
internal_weight=782.392 397.446 384.946 379.67 374.572
internal_count=3195 1609 1586 1565 1544
is_linear=0
shrinkage=0.05


Tree=51
num_leaves=6
num_cat=0
split_feature=13 3 13 13 1
split_gain=260.928 8.70263 0.606583 2.26327e-08 1.42109e-14
threshold=21440.441461015005 0.99483372180813745 21456.62187505819 21520.733807880915 1059688.5000000002
decision_type=2 2 2 2 2
left_child=1 -1 -2 -4 -5
right_child=2 -3 3 4 -6
leaf_value=-0.029195424708776577 0.046183289468710365 0.041354172832827392 0.029115475631341182 0.029112121398624149 0.029112121398624149
leaf_weight=393.02594944834709 5.275936245918273 4.4203692674636832 5.0975516885519019 368.99241498112679 5.5797669589519492
leaf_count=1597 21 12 21 1521 23
internal_value=6.27533e-06 -0.0284108 0.0293461 0.0291122 0.0291121
internal_weight=782.392 397.446 384.946 379.67 374.572
internal_count=3195 1609 1586 1565 1544
is_linear=0
shrinkage=0.05


Tree=52
num_leaves=6
num_cat=0
split_feature=13 3 13 13 1
split_gain=246.131 8.19859 0.556097 1.89832e-08 2.84217e-14
threshold=21440.441461015005 0.99483372180813745 21456.62187505819 21520.733807880915 1046733.0000000001
decision_type=2 2 2 2 2
left_child=1 -1 -2 -4 -5
right_child=2 -3 3 4 -6
leaf_value=0.028957466822143504 -0.045521892389262929 -0.040766445149957045 -0.028882672277880592 -0.028879534891677463 -0.028879534891677463
leaf_weight=376.85207065939903 5.0897168666124335 4.2638502418994895 4.887033373117446 330.95886780321598 28.141969785094261
leaf_count=1597 21 12 21 1423 121
internal_value=-6.19837e-06 0.0281774 -0.0291091 -0.0288796 -0.0288795
internal_weight=750.194 381.116 369.078 363.988 359.101
internal_count=3195 1609 1586 1565 1544
is_linear=0
shrinkage=0.05


Tree=53
num_leaves=6
num_cat=0
split_feature=13 3 13 13 1
split_gain=246.131 8.19859 0.556097 1.89832e-08 2.84217e-14
threshold=21440.441461015005 0.99483372180813745 21456.62187505819 21520.733807880915 1046733.0000000001
decision_type=2 2 2 2 2
left_child=1 -1 -2 -4 -5
right_child=2 -3 3 4 -6
leaf_value=-0.028957466822143504 0.045521892389262929 0.040766445149957045 0.028882672277880592 0.028879534891677463 0.028879534891677463
leaf_weight=376.85207065939903 5.0897168666124335 4.2638502418994895 4.887033373117446 330.95886780321598 28.141969785094261
leaf_count=1597 21 12 21 1423 121
internal_value=6.19837e-06 -0.0281774 0.0291091 0.0288796 0.0288795
internal_weight=750.194 381.116 369.078 363.988 359.101
internal_count=3195 1609 1586 1565 1544
is_linear=0
shrinkage=0.05


Tree=54
num_leaves=6
num_cat=0
split_feature=13 3 13 13 1
split_gain=232.28 7.72896 0.507212 1.59691e-08 1.42109e-14
threshold=21440.441461015005 0.99483372180813745 21456.62187505819 21520.733807880915 1049350.5000000002
decision_type=2 2 2 2 2
left_child=1 -1 -2 -4 -5
right_child=2 -3 3 4 -6
leaf_value=0.02873477841483358 -0.044839459852473271 -0.040241403326805258 -0.028664742356711289 -0.028661802827508506 -0.028661802827508506
leaf_weight=361.18035942316055 4.9133266657590857 4.1074626743793479 4.6831359118223181 323.38911551237106 20.727214157581329
leaf_count=1597 21 12 21 1451 93
internal_value=-6.11773e-06 0.0279592 -0.0288866 -0.0286618 -0.0286618
internal_weight=719.001 365.288 353.713 348.799 344.116
internal_count=3195 1609 1586 1565 1544
is_linear=0
shrinkage=0.05


Tree=55
num_leaves=6
num_cat=0
split_feature=13 3 13 13 1
split_gain=232.28 7.72896 0.507212 1.59691e-08 1.42109e-14
threshold=21440.441461015005 0.99483372180813745 21456.62187505819 21520.733807880915 1049350.5000000002
decision_type=2 2 2 2 2
left_child=1 -1 -2 -4 -5
right_child=2 -3 3 4 -6
leaf_value=-0.02873477841483358 0.044839459852473271 0.040241403326805258 0.028664742356711289 0.028661802827508506 0.028661802827508506
leaf_weight=361.18035942316055 4.9133266657590857 4.1074626743793479 4.6831359118223181 323.38911551237106 20.727214157581329
leaf_count=1597 21 12 21 1451 93
internal_value=6.11773e-06 -0.0279592 0.0288866 0.0286618 0.0286618
internal_weight=719.001 365.288 353.713 348.799 344.116
internal_count=3195 1609 1586 1565 1544
is_linear=0
shrinkage=0.05


Tree=56
num_leaves=6
num_cat=0
split_feature=13 3 13 13 1
split_gain=219.305 7.29066 0.460247 1.34525e-08 1.42109e-14
threshold=21440.441461015005 0.99483372180813745 21456.62187505819 21520.733807880915 1033589.5000000001
decision_type=2 2 2 2 2
left_child=1 -1 -2 -4 -5
right_child=2 -3 3 4 -6
leaf_value=0.028526194908094046 -0.044138383370089178 -0.039770052562477926 -0.028460554451022503 -0.028457797792894358 -0.028457797792894358
leaf_weight=346.01383797824383 4.7460734248161307 3.9522616267204276 4.4858865290880194 274.96851050853729 54.652126312255859
leaf_count=1597 21 12 21 1288 256
internal_value=-6.03312e-06 0.0277549 -0.0286775 -0.0284578 -0.0284578
internal_weight=688.819 349.966 338.853 334.107 329.621
internal_count=3195 1609 1586 1565 1544
is_linear=0
shrinkage=0.05


Tree=57
num_leaves=6
num_cat=0
split_feature=13 3 13 13 1
split_gain=219.305 7.29066 0.460247 1.34525e-08 1.42109e-14
threshold=21440.441461015005 0.99483372180813745 21456.62187505819 21520.733807880915 1033589.5000000001
decision_type=2 2 2 2 2
left_child=1 -1 -2 -4 -5
right_child=2 -3 3 4 -6
leaf_value=-0.028526194908094046 0.044138383370089178 0.039770052562477926 0.028460554451022503 0.028457797792894358 0.028457797792894358
leaf_weight=346.01383797824383 4.7460734248161307 3.9522616267204276 4.4858865290880194 274.96851050853729 54.652126312255859
leaf_count=1597 21 12 21 1288 256
internal_value=6.03312e-06 -0.0277549 0.0286775 0.0284578 0.0284578
internal_weight=688.819 349.966 338.853 334.107 329.621
internal_count=3195 1609 1586 1565 1544
is_linear=0
shrinkage=0.05


Tree=58
num_leaves=6
num_cat=0
split_feature=13 3 13 13 1
split_gain=207.139 6.881 0.415514 1.13281e-08 1.42109e-14
threshold=21440.441461015005 0.99483372180813745 21456.62187505819 21520.733807880915 1023828.0000000001
decision_type=2 2 2 2 2
left_child=1 -1 -2 -4 -5
right_child=2 -3 3 4 -6
leaf_value=0.028330647333211247 -0.043422429705988717 -0.039344474803982517 -0.028269076390655075 -0.028266491226791274 -0.028266491226791274
leaf_weight=331.35276809334755 4.5871716737747184 3.7991340458393088 4.2952774018049231 234.46129709482193 81.151817739009857
leaf_count=1597 21 12 21 1147 397
internal_value=-5.94488e-06 0.0275635 -0.0284808 -0.0282665 -0.0282665
internal_weight=659.647 335.152 324.496 319.908 315.613
internal_count=3195 1609 1586 1565 1544
is_linear=0
shrinkage=0.05


Tree=59
num_leaves=6
num_cat=0
split_feature=13 3 13 13 1
split_gain=207.139 6.881 0.415514 1.13281e-08 1.42109e-14
threshold=21440.441461015005 0.99483372180813745 21456.62187505819 21520.733807880915 1023828.0000000001
decision_type=2 2 2 2 2
left_child=1 -1 -2 -4 -5
right_child=2 -3 3 4 -6
leaf_value=-0.028330647333211247 0.043422429705988717 0.039344474803982517 0.028269076390655075 0.028266491226791274 0.028266491226791274
leaf_weight=331.35276809334755 4.5871716737747184 3.7991340458393088 4.2952774018049231 234.46129709482193 81.151817739009857
leaf_count=1597 21 12 21 1147 397
internal_value=5.94488e-06 -0.0275635 0.0284808 0.0282665 0.0282665
internal_weight=659.647 335.152 324.496 319.908 315.613
internal_count=3195 1609 1586 1565 1544
is_linear=0
shrinkage=0.05


Tree=60
num_leaves=6
num_cat=0
split_feature=13 3 13 13 1
split_gain=195.722 6.49759 0.373288 9.57235e-09 1.42109e-14
threshold=21440.441461015005 0.99483372180813745 21456.62187505819 21520.733807880915 1059688.5000000002
decision_type=2 2 2 2 2
left_child=1 -1 -2 -4 -5
right_child=2 -3 3 4 -6
leaf_value=0.028147174909538244 -0.0426962836209418 -0.038957625882627356 -0.028089378982226139 -0.02808694998518298 -0.02808694998518298
leaf_weight=317.19496043026447 4.4357956349849692 3.648818463087081 4.1112703531980506 297.59089721739292 4.5000595897436133
leaf_count=1597 21 12 21 1521 23
internal_value=-5.85272e-06 0.027384 -0.0282956 -0.028087 -0.0280869
internal_weight=631.482 320.844 310.638 306.202 302.091
internal_count=3195 1609 1586 1565 1544
is_linear=0
shrinkage=0.05


Tree=61
num_leaves=6
num_cat=0
split_feature=13 3 13 13 1
split_gain=195.722 6.49759 0.373288 9.57235e-09 1.42109e-14
threshold=21440.441461015005 0.99483372180813745 21456.62187505819 21520.733807880915 1059688.5000000002
decision_type=2 2 2 2 2
left_child=1 -1 -2 -4 -5
right_child=2 -3 3 4 -6
leaf_value=-0.028147174909538244 0.0426962836209418 0.038957625882627356 0.028089378982226139 0.02808694998518298 0.02808694998518298
leaf_weight=317.19496043026447 4.4357956349849692 3.648818463087081 4.1112703531980506 297.59089721739292 4.5000595897436133
leaf_count=1597 21 12 21 1521 23
internal_value=5.85272e-06 -0.027384 0.0282956 0.028087 0.0280869
internal_weight=631.482 320.844 310.638 306.202 302.091
internal_count=3195 1609 1586 1565 1544
is_linear=0
shrinkage=0.05


Tree=62
num_leaves=8
num_cat=0
split_feature=13 3 9 13 13 1 1
split_gain=185.001 6.13829 0.358912 0.000284864 4.5857e-10 1.42109e-14 8.88178e-16
threshold=21440.441461015005 0.99483372180813745 21402.000000000004 21509.969781528227 21565.592510809642 1044957.5000000001 1059688.5000000002
decision_type=2 2 2 2 2 2 2
left_child=1 -1 -2 -4 -5 -6 -7
right_child=2 -3 3 4 5 6 -8
leaf_value=0.027974903460525148 -0.042582520959878134 -0.038603207451387365 -0.027502696112465787 -0.027918868282053106 -0.027918324600245317 -0.027918324600245317 -0.027918324600245317
leaf_weight=303.53615529835224 4.2294554412364951 3.5019184052944174 4.1820995211601248 3.9319507777690879 260.03219738602638 20.592902600765232 4.3057887256145468
leaf_count=1597 17 12 26 21 1389 110 23
internal_value=-5.75726e-06 0.0272155 -0.0281211 -0.0279124 -0.0279183 -0.0279183 -0.0279183
internal_weight=604.312 307.038 297.274 293.045 288.863 284.931 24.8987
internal_count=3195 1609 1586 1569 1543 1522 133
is_linear=0
shrinkage=0.05


Tree=63
num_leaves=8
num_cat=0
split_feature=13 3 9 13 13 1 1
split_gain=185.001 6.13829 0.358912 0.000284864 4.5857e-10 1.42109e-14 8.88178e-16
threshold=21440.441461015005 0.99483372180813745 21402.000000000004 21509.969781528227 21565.592510809642 1044957.5000000001 1059688.5000000002
decision_type=2 2 2 2 2 2 2
left_child=1 -1 -2 -4 -5 -6 -7
right_child=2 -3 3 4 5 6 -8
leaf_value=-0.027974903460525148 0.042582520959878134 0.038603207451387365 0.027502696112465787 0.027918868282053106 0.027918324600245317 0.027918324600245317 0.027918324600245317
leaf_weight=303.53615529835224 4.2294554412364951 3.5019184052944174 4.1820995211601248 3.9319507777690879 260.03219738602638 20.592902600765232 4.3057887256145468
leaf_count=1597 17 12 26 21 1389 110 23
internal_value=5.75726e-06 -0.0272155 0.0281211 0.0279124 0.0279183 0.0279183 0.0279183
internal_weight=604.312 307.038 297.274 293.045 288.863 284.931 24.8987
internal_count=3195 1609 1586 1569 1543 1522 133
is_linear=0
shrinkage=0.05


Tree=64
num_leaves=7
num_cat=0
split_feature=13 9 13 13 1 1
split_gain=174.924 0.316625 0.000240219 3.85029e-10 2.84217e-14 1.77636e-15
threshold=21440.441461015005 21402.000000000004 21509.969781528227 21565.592510809642 1038150.0000000001 1058373.0000000002
decision_type=2 2 2 2 2 2
left_child=-1 -2 -3 -4 -5 -6
right_child=1 2 3 4 5 -7
leaf_value=0.027057275061601473 -0.041747580868110701 -0.027369436179246046 -0.027760351856935928 -0.027759842467921566 -0.027759842467921566 -0.027759842467921566
leaf_weight=293.72934474050999 4.1016058921813956 3.9970150887966147 3.7610035091638556 237.44531285762787 30.083569049835205 5.0139281749725333
leaf_count=1609 17 26 21 1326 168 28
internal_value=-5.64707e-06 -0.0279561 -0.0277543 -0.0277598 -0.0277598 -0.0277598
internal_weight=578.132 284.402 280.301 276.304 272.543 35.0975
internal_count=3195 1586 1569 1543 1522 196
is_linear=0
shrinkage=0.05


Tree=65
num_leaves=7
num_cat=0
split_feature=13 9 13 13 1 1
split_gain=174.924 0.316625 0.000240219 3.85029e-10 2.84217e-14 1.77636e-15
threshold=21440.441461015005 21402.000000000004 21509.969781528227 21565.592510809642 1038150.0000000001 1058373.0000000002
decision_type=2 2 2 2 2 2
left_child=-1 -2 -3 -4 -5 -6
right_child=1 2 3 4 5 -7
leaf_value=-0.027057275061601473 0.041747580868110701 0.027369436179246046 0.027760351856935928 0.027759842467921566 0.027759842467921566 0.027759842467921566
leaf_weight=293.72934474050999 4.1016058921813956 3.9970150887966147 3.7610035091638556 237.44531285762787 30.083569049835205 5.0139281749725333
leaf_count=1609 17 26 21 1326 168 28
internal_value=5.64707e-06 0.0279561 0.0277543 0.0277598 0.0277598 0.0277598
internal_weight=578.132 284.402 280.301 276.304 272.543 35.0975
internal_count=3195 1586 1569 1543 1522 196
is_linear=0
shrinkage=0.05


Tree=66
num_leaves=7
num_cat=0
split_feature=13 3 9 13 13 1
split_gain=165.273 5.98296 0.278467 0.000202784 3.29621e-10 1.42109e-14
threshold=21440.441461015005 0.99483372180813745 21402.000000000004 21509.969781528227 21565.592510809642 1059688.5000000002
decision_type=2 2 2 2 2 2
left_child=1 -1 -2 -4 -5 -6
right_child=2 -3 3 4 5 -7
leaf_value=0.027664845492336762 -0.040933666211120788 -0.038502957392165582 -0.027243837390367606 -0.027611273114025073 -0.027610791136012933 -0.027610791136012933
leaf_weight=278.02938950061798 3.9771789461374274 3.4588531553745261 3.8191631436347953 3.5964041501283637 256.67647761106491 3.9383315443992606
leaf_count=1597 17 12 26 21 1499 23
internal_value=-6.26474e-06 0.0268518 -0.0278004 -0.0276056 -0.0276108 -0.0276108
internal_weight=553.496 281.488 272.008 268.03 264.211 260.615
internal_count=3195 1609 1586 1569 1543 1522
is_linear=0
shrinkage=0.05


Tree=67
num_leaves=7
num_cat=0
split_feature=13 3 9 13 13 1
split_gain=165.273 5.98296 0.278467 0.000202784 3.29621e-10 1.42109e-14
threshold=21440.441461015005 0.99483372180813745 21402.000000000004 21509.969781528227 21565.592510809642 1059688.5000000002
decision_type=2 2 2 2 2 2
left_child=1 -1 -2 -4 -5 -6
right_child=2 -3 3 4 5 -7
leaf_value=-0.027664845492336762 0.040933666211120788 0.038502957392165582 0.027243837390367606 0.027611273114025073 0.027610791136012933 0.027610791136012933
leaf_weight=278.02938950061798 3.9771789461374274 3.4588531553745261 3.8191631436347953 3.5964041501283637 256.67647761106491 3.9383315443992606
leaf_count=1597 17 12 26 21 1499 23
internal_value=6.26474e-06 -0.0268518 0.0278004 0.0276056 0.0276108 0.0276108
internal_weight=553.496 281.488 272.008 268.03 264.211 260.615
internal_count=3195 1609 1586 1569 1543 1522
is_linear=0
shrinkage=0.05


Tree=68
num_leaves=7
num_cat=0
split_feature=13 3 9 13 13 1
split_gain=156.366 5.65733 0.244217 0.000171356 2.77424e-10 1.42109e-14
threshold=21440.441461015005 0.99483372180813745 21402.000000000004 21509.969781528227 21565.592510809642 1058373.0000000002
decision_type=2 2 2 2 2 2
left_child=1 -1 -2 -4 -5 -6
right_child=2 -3 3 4 5 -7
leaf_value=0.027521405852966876 -0.040143425528364383 -0.038182296229186959 -0.027125402681094948 -0.027470980600110564 -0.027470528368323029 -0.027470528368323029
leaf_weight=265.81323926150799 3.8557943701744071 3.3170925974845877 3.6483609229326239 3.4380339384078971 244.55486476421356 4.5833575725555411
leaf_count=1597 17 12 26 21 1494 28
internal_value=-6.14688e-06 0.0267116 -0.0276536 -0.0274656 -0.0274705 -0.0274705
internal_weight=529.211 269.13 260.08 256.225 252.576 249.138
internal_count=3195 1609 1586 1569 1543 1522
is_linear=0
shrinkage=0.05


Tree=69
num_leaves=7
num_cat=0
split_feature=13 3 9 13 13 1
split_gain=156.366 5.65733 0.244217 0.000171356 2.77424e-10 1.42109e-14
threshold=21440.441461015005 0.99483372180813745 21402.000000000004 21509.969781528227 21565.592510809642 1058373.0000000002
decision_type=2 2 2 2 2 2
left_child=1 -1 -2 -4 -5 -6
right_child=2 -3 3 4 5 -7
leaf_value=-0.027521405852966876 0.040143425528364383 0.038182296229186959 0.027125402681094948 0.027470980600110564 0.027470528368323029 0.027470528368323029
leaf_weight=265.81323926150799 3.8557943701744071 3.3170925974845877 3.6483609229326239 3.4380339384078971 244.55486476421356 4.5833575725555411
leaf_count=1597 17 12 26 21 1494 28
internal_value=6.14688e-06 -0.0267116 0.0276536 0.0274656 0.0274705 0.0274705
internal_weight=529.211 269.13 260.08 256.225 252.576 249.138
internal_count=3195 1609 1586 1569 1543 1522
is_linear=0
shrinkage=0.05


Tree=70
num_leaves=7
num_cat=0
split_feature=13 3 9 13 13 1
split_gain=147.981 5.35118 0.213625 0.000144933 2.38416e-10 1.42109e-14
threshold=21440.441461015005 0.99483372180813745 21402.000000000004 21509.969781528227 21565.592510809642 1053198.0000000002
decision_type=2 2 2 2 2 2
left_child=1 -1 -2 -4 -5 -6
right_child=2 -3 3 4 5 -7
leaf_value=0.02738636983107752 -0.039379096877515833 -0.037881923516354027 -0.027013671076044018 -0.027338882894104039 -0.027338454051743323 -0.027338454051743323
leaf_weight=254.06456032395363 3.7371270954608908 3.1797008812427512 3.4844194948673239 3.285761132836341 228.24772787094116 9.8557963371276838
leaf_count=1597 17 12 26 21 1459 63
internal_value=-6.02964e-06 0.0265796 -0.0275149 -0.0273338 -0.0273385 -0.0273385
internal_weight=505.855 257.244 248.611 244.874 241.389 238.104
internal_count=3195 1609 1586 1569 1543 1522
is_linear=0
shrinkage=0.05


Tree=71
num_leaves=7
num_cat=0
split_feature=13 3 9 13 13 1
split_gain=147.981 5.35118 0.213625 0.000144933 2.38416e-10 1.42109e-14
threshold=21440.441461015005 0.99483372180813745 21402.000000000004 21509.969781528227 21565.592510809642 1053198.0000000002
decision_type=2 2 2 2 2 2
left_child=1 -1 -2 -4 -5 -6
right_child=2 -3 3 4 5 -7
leaf_value=-0.02738636983107752 0.039379096877515833 0.037881923516354027 0.027013671076044018 0.027338882894104039 0.027338454051743323 0.027338454051743323
leaf_weight=254.06456032395363 3.7371270954608908 3.1797008812427512 3.4844194948673239 3.285761132836341 228.24772787094116 9.8557963371276838
leaf_count=1597 17 12 26 21 1459 63
internal_value=6.02964e-06 -0.0265796 0.0275149 0.0273338 0.0273385 0.0273385
internal_weight=505.855 257.244 248.611 244.874 241.389 238.104
internal_count=3195 1609 1586 1569 1543 1522
is_linear=0
shrinkage=0.05


Tree=72
num_leaves=7
num_cat=0
split_feature=13 5 9 13 13 1
split_gain=140.083 5.06308 0.186428 0.000122701 1.9682e-10 1.42109e-14
threshold=21440.441461015005 1772.5000000000002 21402.000000000004 21509.969781528227 21565.592510809642 999398.50000000012
decision_type=2 2 2 2 2 2
left_child=1 -1 -2 -4 -5 -6
right_child=2 -3 3 4 5 -7
leaf_value=-0.037597421517771415 -0.038642454024278031 0.027259179251262384 -0.026908213982849372 -0.027214428734821817 -0.027214030122796426 -0.027214030122796426
leaf_weight=3.0469336956739417 3.6209111288189879 242.77281054854393 3.3271436244249335 3.1394441276788703 112.85336121916771 114.64705702662468
leaf_count=12 17 1597 26 21 755 767
internal_value=-5.91445e-06 0.0264553 -0.0273839 -0.0272097 -0.027214 -0.027214
internal_weight=483.408 245.82 237.588 233.967 230.64 227.5
internal_count=3195 1609 1586 1569 1543 1522
is_linear=0
shrinkage=0.05


Tree=73
num_leaves=7
num_cat=0
split_feature=13 5 9 13 13 1
split_gain=140.083 5.06308 0.186428 0.000122701 1.9682e-10 1.42109e-14
threshold=21440.441461015005 1772.5000000000002 21402.000000000004 21509.969781528227 21565.592510809642 999398.50000000012
decision_type=2 2 2 2 2 2
left_child=1 -1 -2 -4 -5 -6
right_child=2 -3 3 4 5 -7
leaf_value=0.037597421517771415 0.038642454024278031 -0.027259179251262384 0.026908213982849372 0.027214428734821817 0.027214030122796426 0.027214030122796426
leaf_weight=3.0469336956739417 3.6209111288189879 242.77281054854393 3.3271436244249335 3.1394441276788703 112.85336121916771 114.64705702662468
leaf_count=12 17 1597 26 21 755 767
internal_value=5.91445e-06 -0.0264553 0.0273839 0.0272097 0.027214 0.027214
internal_weight=483.408 245.82 237.588 233.967 230.64 227.5
internal_count=3195 1609 1586 1569 1543 1522
is_linear=0
shrinkage=0.05


Tree=74
num_leaves=7
num_cat=0
split_feature=13 3 9 13 13 1
split_gain=132.639 4.79174 0.162351 0.000103962 1.70289e-10 7.10543e-15
threshold=21440.441461015005 0.99483372180813745 21402.000000000004 21509.969781528227 21565.592510809642 1054351.5000000002
decision_type=2 2 2 2 2 2
left_child=1 -1 -2 -4 -5 -6
right_child=2 -3 3 4 5 -7
leaf_value=0.027139308064137148 -0.037934780207981869 -0.037324857426299964 -0.026808641892081382 -0.027097122889408628 -0.027096743524833627 -0.027096743524833627
leaf_weight=231.92682906985283 3.5069386959075919 2.9189636856317511 3.1763347685337058 2.998932719230651 210.03607420623302 7.2820120900869361
leaf_count=1597 17 12 26 21 1471 51
internal_value=-5.8013e-06 0.0263381 -0.0272602 -0.0270927 -0.0270967 -0.0270967
internal_weight=461.846 234.846 227 223.493 220.317 217.318
internal_count=3195 1609 1586 1569 1543 1522
is_linear=0
shrinkage=0.05


Tree=75
num_leaves=7
num_cat=0
split_feature=13 3 9 13 13 1
split_gain=132.639 4.79174 0.162351 0.000103962 1.70289e-10 7.10543e-15
threshold=21440.441461015005 0.99483372180813745 21402.000000000004 21509.969781528227 21565.592510809642 1054351.5000000002
decision_type=2 2 2 2 2 2
left_child=1 -1 -2 -4 -5 -6
right_child=2 -3 3 4 5 -7
leaf_value=-0.027139308064137148 0.037934780207981869 0.037324857426299964 0.026808641892081382 0.027097122889408628 0.027096743524833627 0.027096743524833627
leaf_weight=231.92682906985283 3.5069386959075919 2.9189636856317511 3.1763347685337058 2.998932719230651 210.03607420623302 7.2820120900869361
leaf_count=1597 17 12 26 21 1471 51
internal_value=5.8013e-06 -0.0263381 0.0272602 0.0270927 0.0270967 0.0270967
internal_weight=461.846 234.846 227 223.493 220.317 217.318
internal_count=3195 1609 1586 1569 1543 1522
is_linear=0
shrinkage=0.05


Tree=76
num_leaves=6
num_cat=0
split_feature=13 3 9 13 13
split_gain=125.621 4.53601 0.141119 8.81604e-05 1.43231e-10
threshold=21440.441461015005 0.99483372180813745 21402.000000000004 21509.969781528227 21565.592510809642
decision_type=2 2 2 2 2
left_child=1 -1 -2 -4 -5
right_child=2 -3 3 4 -6
leaf_value=0.027026285548169566 -0.037256896258424224 -0.037060763597376666 -0.026714585338476565 -0.026986495097876886 -0.026986139081040441
leaf_weight=221.51488389074802 3.3950575664639464 2.7958916872739783 3.031791925430297 2.8640713840723029 207.54518857598305
leaf_count=1597 17 12 26 21 1522
internal_value=-5.69044e-06 0.0262275 -0.0271432 -0.0269823 -0.0269861
internal_weight=441.147 224.311 216.836 213.441 210.409
internal_count=3195 1609 1586 1569 1543
is_linear=0
shrinkage=0.05


Tree=77
num_leaves=6
num_cat=0
split_feature=13 3 9 13 13
split_gain=125.621 4.53601 0.141119 8.81604e-05 1.43231e-10
threshold=21440.441461015005 0.99483372180813745 21402.000000000004 21509.969781528227 21565.592510809642
decision_type=2 2 2 2 2
left_child=1 -1 -2 -4 -5
right_child=2 -3 3 4 -6
leaf_value=-0.027026285548169566 0.037256896258424224 0.037060763597376666 0.026714585338476565 0.026986495097876886 0.026986139081040441
leaf_weight=221.51488389074802 3.3950575664639464 2.7958916872739783 3.031791925430297 2.8640713840723029 207.54518857598305
leaf_count=1597 17 12 26 21 1522
internal_value=5.69044e-06 -0.0262275 0.0271432 0.0269823 0.0269861
internal_weight=441.147 224.311 216.836 213.441 210.409
internal_count=3195 1609 1586 1569 1543
is_linear=0
shrinkage=0.05


Tree=78
num_leaves=7
num_cat=0
split_feature=13 3 9 13 13 1
split_gain=119.001 4.29481 0.122459 7.48152e-05 1.22142e-10 7.10543e-15
threshold=21440.441461015005 0.99483372180813745 21402.000000000004 21509.969781528227 21565.592510809642 1054351.5000000002
decision_type=2 2 2 2 2 2
left_child=1 -1 -2 -4 -5 -6
right_child=2 -3 3 4 5 -7
leaf_value=0.026919669817646388 -0.036609192800545552 -0.036802112045353517 -0.026625710712573733 -0.026882120527386685 -0.026881784082423262 -0.026881784082423262
leaf_weight=211.52490985393524 3.2851639613509169 2.6777559518814078 2.8933126479387274 2.7346994280815116 191.52969978749752 6.6403906792402259
leaf_count=1597 17 12 26 21 1471 51
internal_value=-5.57852e-06 0.0261231 -0.0270325 -0.0268782 -0.0268818 -0.0268818
internal_weight=421.286 214.203 207.083 203.798 200.905 198.17
internal_count=3195 1609 1586 1569 1543 1522
is_linear=0
shrinkage=0.05


Tree=79
num_leaves=7
num_cat=0
split_feature=13 3 9 13 13 1
split_gain=119.001 4.29481 0.122459 7.48152e-05 1.22142e-10 7.10543e-15
threshold=21440.441461015005 0.99483372180813745 21402.000000000004 21509.969781528227 21565.592510809642 1054351.5000000002
decision_type=2 2 2 2 2 2
left_child=1 -1 -2 -4 -5 -6
right_child=2 -3 3 4 5 -7
leaf_value=-0.026919669817646388 0.036609192800545552 0.036802112045353517 0.026625710712573733 0.026882120527386685 0.026881784082423262 0.026881784082423262
leaf_weight=211.52490985393524 3.2851639613509169 2.6777559518814078 2.8933126479387274 2.7346994280815116 191.52969978749752 6.6403906792402259
leaf_count=1597 17 12 26 21 1471 51
internal_value=5.57852e-06 -0.0261231 0.0270325 0.0268782 0.0268818 0.0268818
internal_weight=421.286 214.203 207.083 203.798 200.905 198.17
internal_count=3195 1609 1586 1569 1543 1522
is_linear=0
shrinkage=0.05


Tree=80
num_leaves=7
num_cat=0
split_feature=13 3 9 13 13 8
split_gain=112.754 4.06718 0.106111 6.35359e-05 1.04137e-10 1.42109e-14
threshold=21440.441461015005 0.99483372180813745 21402.000000000004 21509.969781528227 21565.592510809642 1662.5000000000002
decision_type=2 2 2 2 2 2
left_child=1 -1 -2 -4 -5 -6
right_child=2 -3 3 4 5 -7
leaf_value=0.026819046817735261 -0.035991689408079619 -0.036546325383628314 -0.026541701189115974 -0.026783601955884563 -0.026783283980530294 -0.026783283980530294
leaf_weight=201.94453243911266 3.1771961674094191 2.5645400136709204 2.7606953233480445 2.610653154551982 15.288606204092501 173.89235837012529
leaf_count=1597 17 12 26 21 123 1399
internal_value=-5.47199e-06 0.0260244 -0.0269279 -0.0267799 -0.0267833 -0.0267833
internal_weight=402.239 204.509 197.73 194.552 191.792 189.181
internal_count=3195 1609 1586 1569 1543 1522
is_linear=0
shrinkage=0.05


Tree=81
num_leaves=7
num_cat=0
split_feature=13 3 9 13 13 8
split_gain=112.754 4.06718 0.106111 6.35359e-05 1.04137e-10 1.42109e-14
threshold=21440.441461015005 0.99483372180813745 21402.000000000004 21509.969781528227 21565.592510809642 1662.5000000000002
decision_type=2 2 2 2 2 2
left_child=1 -1 -2 -4 -5 -6
right_child=2 -3 3 4 5 -7
leaf_value=-0.026819046817735261 0.035991689408079619 0.036546325383628314 0.026541701189115974 0.026783601955884563 0.026783283980530294 0.026783283980530294
leaf_weight=201.94453243911266 3.1771961674094191 2.5645400136709204 2.7606953233480445 2.610653154551982 15.288606204092501 173.89235837012529
leaf_count=1597 17 12 26 21 123 1399
internal_value=5.47199e-06 -0.0260244 0.0269279 0.0267799 0.0267833 0.0267833
internal_weight=402.239 204.509 197.73 194.552 191.792 189.181
internal_count=3195 1609 1586 1569 1543 1522
is_linear=0
shrinkage=0.05


Tree=82
num_leaves=6
num_cat=0
split_feature=13 3 9 13 13
split_gain=106.855 3.85224 0.0918276 5.39939e-05 8.88107e-11
threshold=21440.441461015005 0.99483372180813745 21402.000000000004 21509.969781528227 21565.592510809642
decision_type=2 2 2 2 2
left_child=1 -1 -2 -4 -5
right_child=2 -3 3 4 -6
leaf_value=0.026724046883658183 -0.035404096662320514 -0.036291264016100611 -0.026462263617188841 -0.026690572161486004 -0.026690271622367603
leaf_weight=192.76119864732027 3.071127124130725 2.4561808705329886 2.6337385177612296 2.4917668700218192 180.56575670838356
leaf_count=1597 17 12 26 21 1522
internal_value=-5.36366e-06 0.0259312 -0.0268289 -0.026687 -0.0266903
internal_weight=383.98 195.217 188.762 185.691 183.058
internal_count=3195 1609 1586 1569 1543
is_linear=0
shrinkage=0.05


Tree=83
num_leaves=6
num_cat=0
split_feature=13 3 9 13 13
split_gain=106.855 3.85224 0.0918276 5.39939e-05 8.88107e-11
threshold=21440.441461015005 0.99483372180813745 21402.000000000004 21509.969781528227 21565.592510809642
decision_type=2 2 2 2 2
left_child=1 -1 -2 -4 -5
right_child=2 -3 3 4 -6
leaf_value=-0.026724046883658183 0.035404096662320514 0.036291264016100611 0.026462263617188841 0.026690572161486004 0.026690271622367603
leaf_weight=192.76119864732027 3.071127124130725 2.4561808705329886 2.6337385177612296 2.4917668700218192 180.56575670838356
leaf_count=1597 17 12 26 21 1522
internal_value=5.36366e-06 -0.0259312 0.0268289 0.026687 0.0266903
internal_weight=383.98 195.217 188.762 185.691 183.058
internal_count=3195 1609 1586 1569 1543
is_linear=0
shrinkage=0.05


Tree=84
num_leaves=6
num_cat=0
split_feature=13 5 9 13 13
split_gain=101.285 3.6492 0.0793779 4.5915e-05 7.53602e-11
threshold=21440.441461015005 1772.5000000000002 21402.000000000004 21509.969781528227 21565.592510809642
decision_type=2 2 2 2 2
left_child=1 -1 -2 -4 -5
right_child=2 -3 3 4 -6
leaf_value=-0.036035212124431698 -0.034845867745786838 0.026634318959897381 -0.026387127884093753 -0.02660269403790514 -0.026602410652653993
leaf_weight=2.3525770455598822 2.9669570922851554 183.9622245952487 2.5122430026531211 2.3778738230466834 172.31240133941174
leaf_count=12 17 1597 26 21 1522
internal_value=-5.25869e-06 0.025843 -0.0267352 -0.0265994 -0.0266024
internal_weight=366.484 186.315 180.169 177.203 174.69
internal_count=3195 1609 1586 1569 1543
is_linear=0
shrinkage=0.05


Tree=85
num_leaves=6
num_cat=0
split_feature=13 5 9 13 13
split_gain=101.285 3.6492 0.0793779 4.5915e-05 7.53602e-11
threshold=21440.441461015005 1772.5000000000002 21402.000000000004 21509.969781528227 21565.592510809642
decision_type=2 2 2 2 2
left_child=1 -1 -2 -4 -5
right_child=2 -3 3 4 -6
leaf_value=0.036035212124431698 0.034845867745786838 -0.026634318959897381 0.026387127884093753 0.02660269403790514 0.026602410652653993
leaf_weight=2.3525770455598822 2.9669570922851554 183.9622245952487 2.5122430026531211 2.3778738230466834 172.31240133941174
leaf_count=12 17 1597 26 21 1522
internal_value=5.25869e-06 -0.025843 0.0267352 0.0265994 0.0266024
internal_weight=366.484 186.315 180.169 177.203 174.69
internal_count=3195 1609 1586 1569 1543
is_linear=0
shrinkage=0.05


Tree=86
num_leaves=8
num_cat=0
split_feature=13 5 9 13 13 1 1
split_gain=96.0216 3.45732 0.0685495 3.90683e-05 6.4226e-11 7.10543e-15 4.44089e-16
threshold=21440.441461015005 1772.5000000000002 21402.000000000004 21509.969781528227 21565.592510809642 1050746.0000000002 1059688.5000000002
decision_type=2 2 2 2 2 2 2
left_child=1 -1 -2 -4 -5 -6 -7
right_child=2 -3 3 4 5 6 -8
leaf_value=-0.035776854795173868 -0.034316251874076033 0.026549538725377221 -0.026316040801069557 -0.026519651798399425 -0.026519383954473903 -0.02651938395447391 -0.026519383954473893
leaf_weight=2.2535960078239432 2.8647070564329615 175.53495019674301 2.396011769771575 2.2688073366880408 155.65907485038042 6.2652507573366147 2.4844959899783134
leaf_count=12 17 1597 26 21 1441 58 23
internal_value=-5.15493e-06 0.0257595 -0.0266465 -0.0265165 -0.0265194 -0.0265194 -0.0265194
internal_weight=349.727 177.789 171.938 169.074 166.678 164.409 8.74975
internal_count=3195 1609 1586 1569 1543 1522 81
is_linear=0
shrinkage=0.05


Tree=87
num_leaves=8
num_cat=0
split_feature=13 5 9 13 13 1 1
split_gain=96.0216 3.45732 0.0685495 3.90683e-05 6.4226e-11 7.10543e-15 4.44089e-16
threshold=21440.441461015005 1772.5000000000002 21402.000000000004 21509.969781528227 21565.592510809642 1050746.0000000002 1059688.5000000002
decision_type=2 2 2 2 2 2 2
left_child=1 -1 -2 -4 -5 -6 -7
right_child=2 -3 3 4 5 6 -8
leaf_value=0.035776854795173868 0.034316251874076033 -0.026549538725377221 0.026316040801069557 0.026519651798399425 0.026519383954473903 0.02651938395447391 0.026519383954473893
leaf_weight=2.2535960078239432 2.8647070564329615 175.53495019674301 2.396011769771575 2.2688073366880408 155.65907485038042 6.2652507573366147 2.4844959899783134
leaf_count=12 17 1597 26 21 1441 58 23
internal_value=5.15493e-06 -0.0257595 0.0266465 0.0265165 0.0265194 0.0265194 0.0265194
internal_weight=349.727 177.789 171.938 169.074 166.678 164.409 8.74975
internal_count=3195 1609 1586 1569 1543 1522 81
is_linear=0
shrinkage=0.05


Tree=88
num_leaves=7
num_cat=0
split_feature=13 5 9 13 13 8
split_gain=91.0473 3.27593 0.0591486 3.32619e-05 5.52589e-11 1.42109e-14
threshold=21440.441461015005 1772.5000000000002 21402.000000000004 21509.969781528227 21565.592510809642 8444.0000000000018
decision_type=2 2 2 2 2 2
left_child=1 -1 -2 -4 -5 -6
right_child=2 -3 3 4 5 -7
leaf_value=-0.035515281353538396 -0.033814346051912664 0.026469405664151742 -0.026248762030602554 -0.026441150742426495 -0.026440896343394801 -0.026440896343394801
leaf_weight=2.159080132842063 2.7644129432737818 167.46672726422548 2.2848510444164267 2.1644017249345771 133.14137133955956 23.70163731276989
leaf_count=12 17 1597 26 21 1292 230
internal_value=-5.05251e-06 0.0256804 -0.0265625 -0.0264382 -0.0264409 -0.0264409
internal_weight=333.682 169.626 164.057 161.292 159.007 156.843
internal_count=3195 1609 1586 1569 1543 1522
is_linear=0
shrinkage=0.05


Tree=89
num_leaves=7
num_cat=0
split_feature=13 5 9 13 13 8
split_gain=91.0473 3.27593 0.0591486 3.32619e-05 5.52589e-11 1.42109e-14
threshold=21440.441461015005 1772.5000000000002 21402.000000000004 21509.969781528227 21565.592510809642 8444.0000000000018
decision_type=2 2 2 2 2 2
left_child=1 -1 -2 -4 -5 -6
right_child=2 -3 3 4 5 -7
leaf_value=0.035515281353538396 0.033814346051912664 -0.026469405664151742 0.026248762030602554 0.026441150742426495 0.026440896343394801 0.026440896343394801
leaf_weight=2.159080132842063 2.7644129432737818 167.46672726422548 2.2848510444164267 2.1644017249345771 133.14137133955956 23.70163731276989
leaf_count=12 17 1597 26 21 1292 230
internal_value=5.05251e-06 -0.0256804 0.0265625 0.0264382 0.0264409 0.0264409
internal_weight=333.682 169.626 164.057 161.292 159.007 156.843
internal_count=3195 1609 1586 1569 1543 1522
is_linear=0
shrinkage=0.05


Tree=90
num_leaves=7
num_cat=0
split_feature=13 5 9 13 13 1
split_gain=86.3444 3.1044 0.051 2.83344e-05 4.66613e-11 7.10543e-15
threshold=21440.441461015005 1772.5000000000002 21402.000000000004 21509.969781528227 21565.592510809642 1057192.0000000002
decision_type=2 2 2 2 2 2
left_child=1 -1 -2 -4 -5 -6
right_child=2 -3 3 4 5 -7
leaf_value=-0.035249937918830916 -0.033339143264700652 0.026393642571945816 -0.026185073613052442 -0.026366919084737112 -0.026366679734442185 -0.026366679734442185
leaf_weight=2.068853333592414 2.6661200262606135 159.7450027987361 2.1785703599452964 2.0644925013184539 146.26103568077087 3.3419860303401938
leaf_count=12 17 1597 26 21 1488 34
internal_value=-4.95057e-06 0.0256055 -0.0264829 -0.0263641 -0.0263667 -0.0263667
internal_weight=318.326 161.814 156.512 153.846 151.668 149.603
internal_count=3195 1609 1586 1569 1543 1522
is_linear=0
shrinkage=0.05


Tree=91
num_leaves=7
num_cat=0
split_feature=13 5 9 13 13 1
split_gain=86.3444 3.1044 0.051 2.83344e-05 4.66613e-11 7.10543e-15
threshold=21440.441461015005 1772.5000000000002 21402.000000000004 21509.969781528227 21565.592510809642 1057192.0000000002
decision_type=2 2 2 2 2 2
left_child=1 -1 -2 -4 -5 -6
right_child=2 -3 3 4 5 -7
leaf_value=0.035249937918830916 0.033339143264700652 -0.026393642571945816 0.026185073613052442 0.026366919084737112 0.026366679734442185 0.026366679734442185
leaf_weight=2.068853333592414 2.6661200262606135 159.7450027987361 2.1785703599452964 2.0644925013184539 146.26103568077087 3.3419860303401938
leaf_count=12 17 1597 26 21 1488 34
internal_value=4.95057e-06 -0.0256055 0.0264829 0.0263641 0.0263667 0.0263667
internal_weight=318.326 161.814 156.512 153.846 151.668 149.603
internal_count=3195 1609 1586 1569 1543 1522
is_linear=0
shrinkage=0.05


Tree=92
num_leaves=8
num_cat=0
split_feature=13 5 9 13 13 1 9
split_gain=81.8968 2.94215 0.0439468 2.41495e-05 3.97193e-11 7.10543e-15 4.44089e-16
threshold=21440.441461015005 1772.5000000000002 21402.000000000004 21509.969781528227 21565.592510809642 1047452.0000000001 21763.500000000004
decision_type=2 2 2 2 2 2 2
left_child=1 -1 -2 -4 -5 -6 -7
right_child=2 -3 3 4 5 6 -8
leaf_value=-0.034980607598639274 -0.03288955012489899 0.026321982320203125 -0.026124767611368799 -0.026296703630203158 -0.026296477522326347 -0.026296477522326358 -0.026296477522326347
leaf_weight=1.9827270507812489 2.5698790214955798 152.3573784828186 2.076983004808425 1.9689171388745297 132.36536347866058 2.4373225569725019 7.8744267225265503
leaf_count=12 17 1597 26 21 1412 26 84
internal_value=-4.85177e-06 0.0255345 -0.0264076 -0.026294 -0.0262965 -0.0262965 -0.0262965
internal_weight=303.633 154.34 149.293 146.723 144.646 142.677 10.3117
internal_count=3195 1609 1586 1569 1543 1522 110
is_linear=0
shrinkage=0.05


Tree=93
num_leaves=8
num_cat=0
split_feature=13 5 9 13 13 1 9
split_gain=81.8968 2.94215 0.0439468 2.41495e-05 3.97193e-11 7.10543e-15 4.44089e-16
threshold=21440.441461015005 1772.5000000000002 21402.000000000004 21509.969781528227 21565.592510809642 1047452.0000000001 21763.500000000004
decision_type=2 2 2 2 2 2 2
left_child=1 -1 -2 -4 -5 -6 -7
right_child=2 -3 3 4 5 6 -8
leaf_value=0.034980607598639274 0.03288955012489899 -0.026321982320203125 0.026124767611368799 0.026296703630203158 0.026296477522326347 0.026296477522326358 0.026296477522326347
leaf_weight=1.9827270507812489 2.5698790214955798 152.3573784828186 2.076983004808425 1.9689171388745297 132.36536347866058 2.4373225569725019 7.8744267225265503
leaf_count=12 17 1597 26 21 1412 26 84
internal_value=4.85177e-06 -0.0255345 0.0264076 0.026294 0.0262965 0.0262965 0.0262965
internal_weight=303.633 154.34 149.293 146.723 144.646 142.677 10.3117
internal_count=3195 1609 1586 1569 1543 1522 110
is_linear=0
shrinkage=0.05


Tree=94
num_leaves=8
num_cat=0
split_feature=13 5 9 13 13 1 1
split_gain=77.6894 2.78867 0.0378491 2.05925e-05 3.40705e-11 7.10543e-15 7.10543e-15
threshold=21440.441461015005 1772.5000000000002 21402.000000000004 21509.969781528227 21565.592510809642 1058373.0000000002 1047452.0000000001
decision_type=2 2 2 2 2 2 2
left_child=1 -1 -2 -4 -5 6 -6
right_child=2 -3 3 4 5 -7 -8
leaf_value=-0.034707357429477045 -0.032464445030909499 0.026254189106431514 -0.02606765311322511 -0.0262302685965278 -0.026230054125273683 -0.026230054125273683 -0.026230054125273683
leaf_weight=1.9005051255226124 2.4757417589426032 145.29159878194332 1.9799069017171849 1.8775156587362278 126.22061881422997 2.5029584467411032 7.3300925940275183
leaf_count=12 17 1597 26 21 1412 28 82
internal_value=-4.75302e-06 0.0254671 -0.0263362 -0.0262278 -0.0262301 -0.0262301 -0.0262301
internal_weight=289.579 147.192 142.387 139.911 137.931 136.054 133.551
internal_count=3195 1609 1586 1569 1543 1522 1494
is_linear=0
shrinkage=0.05


Tree=95
num_leaves=8
num_cat=0
split_feature=13 5 9 13 13 1 1
split_gain=77.6894 2.78867 0.0378491 2.05925e-05 3.40705e-11 7.10543e-15 7.10543e-15
threshold=21440.441461015005 1772.5000000000002 21402.000000000004 21509.969781528227 21565.592510809642 1058373.0000000002 1047452.0000000001
decision_type=2 2 2 2 2 2 2
left_child=1 -1 -2 -4 -5 6 -6
right_child=2 -3 3 4 5 -7 -8
leaf_value=0.034707357429477045 0.032464445030909499 -0.026254189106431514 0.02606765311322511 0.0262302685965278 0.026230054125273683 0.026230054125273683 0.026230054125273683
leaf_weight=1.9005051255226124 2.4757417589426032 145.29159878194332 1.9799069017171849 1.8775156587362278 126.22061881422997 2.5029584467411032 7.3300925940275183
leaf_count=12 17 1597 26 21 1412 28 82
internal_value=4.75302e-06 -0.0254671 0.0263362 0.0262278 0.0262301 0.0262301 0.0262301
internal_weight=289.579 147.192 142.387 139.911 137.931 136.054 133.551
internal_count=3195 1609 1586 1569 1543 1522 1494
is_linear=0
shrinkage=0.05


Tree=96
num_leaves=7
num_cat=0
split_feature=13 5 9 13 13 1
split_gain=73.7081 2.64345 0.0325828 1.7568e-05 2.92175e-11 7.10543e-15
threshold=21440.441461015005 1772.5000000000002 21402.000000000004 21509.969781528227 21565.592510809642 1059688.5000000002
decision_type=2 2 2 2 2 2
left_child=1 -1 -2 -4 -5 -6
right_child=2 -3 3 4 5 -7
leaf_value=-0.034430520913740936 -0.032062673340590153 0.02619003253702662 -0.026013546418211544 -0.02616739288482467 -0.026167189475612897 -0.026167189475612897
leaf_weight=1.8219880610704411 2.3837591335177413 138.53564613312483 1.8871640115976323 1.7901311293244351 127.76101016998291 1.9603090286254872
leaf_count=12 17 1597 26 21 1499 23
internal_value=-4.65648e-06 0.0254031 -0.0262686 -0.026165 -0.0261672 -0.0261672
internal_weight=276.14 140.358 135.782 133.399 131.511 129.721
internal_count=3195 1609 1586 1569 1543 1522
is_linear=0
shrinkage=0.05


Tree=97
num_leaves=7
num_cat=0
split_feature=13 5 9 13 13 1
split_gain=73.7081 2.64345 0.0325828 1.7568e-05 2.92175e-11 7.10543e-15
threshold=21440.441461015005 1772.5000000000002 21402.000000000004 21509.969781528227 21565.592510809642 1059688.5000000002
decision_type=2 2 2 2 2 2
left_child=1 -1 -2 -4 -5 -6
right_child=2 -3 3 4 5 -7
leaf_value=0.034430520913740936 0.032062673340590153 -0.02619003253702662 0.026013546418211544 0.02616739288482467 0.026167189475612897 0.026167189475612897
leaf_weight=1.8219880610704411 2.3837591335177413 138.53564613312483 1.8871640115976323 1.7901311293244351 127.76101016998291 1.9603090286254872
leaf_count=12 17 1597 26 21 1499 23
internal_value=4.65648e-06 -0.0254031 0.0262686 0.026165 0.0261672 0.0261672
internal_weight=276.14 140.358 135.782 133.399 131.511 129.721
internal_count=3195 1609 1586 1569 1543 1522
is_linear=0
shrinkage=0.05


Tree=98
num_leaves=6
num_cat=0
split_feature=13 5 9 13 13
split_gain=69.9398 2.50603 0.0280388 1.49937e-05 2.47056e-11
threshold=21440.441461015005 1772.5000000000002 21402.000000000004 21509.969781528227 21565.592510809642
decision_type=2 2 2 2 2
left_child=1 -1 -2 -4 -5
right_child=2 -3 3 4 -6
leaf_value=-0.034150621166177307 -0.031683084205840713 0.02612930321858084 -0.025962280769465714 -0.026107865753653731 -0.026107674241015479
leaf_weight=1.7469774112105358 2.2939787879586211 132.07772904634476 1.7985811680555333 1.7066097855567921 123.66891378164291
leaf_count=12 17 1597 26 21 1522
internal_value=-4.55986e-06 0.0253424 -0.0262044 -0.0261056 -0.0261077
internal_weight=263.293 133.825 129.468 127.174 125.376
internal_count=3195 1609 1586 1569 1543
is_linear=0
shrinkage=0.05


Tree=99
num_leaves=6
num_cat=0
split_feature=13 5 9 13 13
split_gain=69.9398 2.50603 0.0280388 1.49937e-05 2.47056e-11
threshold=21440.441461015005 1772.5000000000002 21402.000000000004 21509.969781528227 21565.592510809642
decision_type=2 2 2 2 2
left_child=1 -1 -2 -4 -5
right_child=2 -3 3 4 -6
leaf_value=0.034150621166177307 0.031683084205840713 -0.02612930321858084 0.025962280769465714 0.026107865753653731 0.026107674241015479
leaf_weight=1.7469774112105358 2.2939787879586211 132.07772904634476 1.7985811680555333 1.7066097855567921 123.66891378164291
leaf_count=12 17 1597 26 21 1522
internal_value=4.55986e-06 -0.0253424 0.0262044 0.0261056 0.0261077
internal_weight=263.293 133.825 129.468 127.174 125.376
internal_count=3195 1609 1586 1569 1543
is_linear=0
shrinkage=0.05


Tree=100
num_leaves=8
num_cat=0
split_feature=13 5 9 13 13 1 2
split_gain=66.3722 2.37598 0.0241208 1.28026e-05 2.11742e-11 7.10543e-15 2.22045e-16
threshold=21440.441461015005 1772.5000000000002 21402.000000000004 21509.969781528227 21565.592510809642 1054351.5000000002 1045586.5000000001
decision_type=2 2 2 2 2 2 2
left_child=1 -1 -2 -4 -5 -6 -7
right_child=2 -3 3 4 5 6 -8
leaf_value=-0.033868355401054394 -0.031324542047316238 0.02607180351376967 -0.025913696054067643 -0.02605150310200079 -0.02605132145347859 -0.026051321453478583 -0.026051321453478573
leaf_weight=1.6752786636352528 2.2064426727592936 125.90630590170622 1.7139899432659138 1.6268009543418873 113.93538303673267 2.3236311972141261 1.6265418380498884
leaf_count=12 17 1597 26 21 1471 30 21
internal_value=-4.46672e-06 0.0252847 -0.0261437 -0.0260494 -0.0260513 -0.0260513 -0.0260513
internal_weight=251.014 127.582 123.433 121.226 119.512 117.886 3.95017
internal_count=3195 1609 1586 1569 1543 1522 51
is_linear=0
shrinkage=0.05


Tree=101
num_leaves=8
num_cat=0
split_feature=13 5 9 13 13 1 2
split_gain=66.3722 2.37598 0.0241208 1.28026e-05 2.11742e-11 7.10543e-15 2.22045e-16
threshold=21440.441461015005 1772.5000000000002 21402.000000000004 21509.969781528227 21565.592510809642 1054351.5000000002 1045586.5000000001
decision_type=2 2 2 2 2 2 2
left_child=1 -1 -2 -4 -5 -6 -7
right_child=2 -3 3 4 5 6 -8
leaf_value=0.033868355401054394 0.031324542047316238 -0.02607180351376967 0.025913696054067643 0.02605150310200079 0.02605132145347859 0.026051321453478583 0.026051321453478573
leaf_weight=1.6752786636352528 2.2064426727592936 125.90630590170622 1.7139899432659138 1.6268009543418873 113.93538303673267 2.3236311972141261 1.6265418380498884
leaf_count=12 17 1597 26 21 1471 30 21
internal_value=4.46672e-06 -0.0252847 0.0261437 0.0260494 0.0260513 0.0260513 0.0260513
internal_weight=251.014 127.582 123.433 121.226 119.512 117.886 3.95017
internal_count=3195 1609 1586 1569 1543 1522 51
is_linear=0
shrinkage=0.05


Tree=102
num_leaves=9
num_cat=0
split_feature=13 5 9 13 13 2 1 3
split_gain=62.9938 2.25289 0.0207448 1.09358e-05 1.81437e-11 7.10543e-15 8.88178e-16 4.44089e-16
threshold=21440.441461015005 1772.5000000000002 21402.000000000004 21509.969781528227 21565.592510809642 969209.00000000012 964414.50000000012 0.99011877026007356
decision_type=2 2 2 2 2 2 2 2
left_child=1 -1 -2 -4 -5 6 -6 -8
right_child=2 -3 3 4 5 -7 7 -9
leaf_value=-0.033584536983670345 -0.030985933261791117 0.026017346561715539 -0.025867644609632246 -0.025998120260947263 -0.025997948031050405 -0.025997948031050412 -0.025997948031050419 -0.025997948031050405
leaf_weight=1.6067036017775524 2.121186986565589 120.01013254374266 1.6332269608974446 1.5505581870675076 11.295120388269426 90.0656658411026 7.8992018401622754 3.1006212830543518
leaf_count=12 17 1597 26 21 153 1220 107 42
internal_value=-4.37458e-06 0.0252299 -0.0260861 -0.0259961 -0.025998 -0.0259979 -0.0259979 -0.0259979
internal_weight=239.282 121.617 117.666 115.544 113.911 112.361 22.2949 10.9998
internal_count=3195 1609 1586 1569 1543 1522 302 149
is_linear=0
shrinkage=0.05


Tree=103
num_leaves=9
num_cat=0
split_feature=13 5 9 13 13 2 1 3
split_gain=62.9938 2.25289 0.0207448 1.09358e-05 1.81437e-11 7.10543e-15 8.88178e-16 4.44089e-16
threshold=21440.441461015005 1772.5000000000002 21402.000000000004 21509.969781528227 21565.592510809642 969209.00000000012 964414.50000000012 0.99011877026007356
decision_type=2 2 2 2 2 2 2 2
left_child=1 -1 -2 -4 -5 6 -6 -8
right_child=2 -3 3 4 5 -7 7 -9
leaf_value=0.033584536983670345 0.030985933261791117 -0.026017346561715539 0.025867644609632246 0.025998120260947263 0.025997948031050405 0.025997948031050412 0.025997948031050419 0.025997948031050405
leaf_weight=1.6067036017775524 2.121186986565589 120.01013254374266 1.6332269608974446 1.5505581870675076 11.295120388269426 90.0656658411026 7.8992018401622754 3.1006212830543518
leaf_count=12 17 1597 26 21 153 1220 107 42
internal_value=4.37458e-06 -0.0252299 0.0260861 0.0259961 0.025998 0.0259979 0.0259979 0.0259979
internal_weight=239.282 121.617 117.666 115.544 113.911 112.361 22.2949 10.9998
internal_count=3195 1609 1586 1569 1543 1522 302 149
is_linear=0
shrinkage=0.05


Tree=104
num_leaves=7
num_cat=0
split_feature=13 5 9 13 13 1
split_gain=59.7939 2.13638 0.0178375 9.34492e-06 1.57456e-11 7.10543e-15
threshold=21440.441461015005 1772.5000000000002 21402.000000000004 21509.969781528227 21565.592510809642 968641.50000000012
decision_type=2 2 2 2 2 2
left_child=1 -1 -2 -4 -5 -6
right_child=2 -3 3 4 5 -7
leaf_value=-0.033300055238544769 -0.03066617730150048 0.025965762712393366 -0.025823983188339922 -0.025947548026335334 -0.025947383675708775 -0.025947383675708775
leaf_weight=1.5410726144909848 2.0382406897842875 114.37822658568621 1.5561338812112797 1.4777387157082547 19.840746089816093 87.242996990680695
leaf_count=12 17 1597 26 21 282 1240
internal_value=-4.28456e-06 0.0251779 -0.0260314 -0.0259456 -0.0259474 -0.0259474
internal_weight=228.075 115.919 112.156 110.118 108.561 107.084
internal_count=3195 1609 1586 1569 1543 1522
is_linear=0
shrinkage=0.05


Tree=105
num_leaves=7
num_cat=0
split_feature=13 5 9 13 13 1
split_gain=59.7939 2.13638 0.0178375 9.34492e-06 1.57456e-11 7.10543e-15
threshold=21440.441461015005 1772.5000000000002 21402.000000000004 21509.969781528227 21565.592510809642 968641.50000000012
decision_type=2 2 2 2 2 2
left_child=1 -1 -2 -4 -5 -6
right_child=2 -3 3 4 5 -7
leaf_value=0.033300055238544769 0.03066617730150048 -0.025965762712393366 0.025823983188339922 0.025947548026335334 0.025947383675708775 0.025947383675708775
leaf_weight=1.5410726144909848 2.0382406897842875 114.37822658568621 1.5561338812112797 1.4777387157082547 19.840746089816093 87.242996990680695
leaf_count=12 17 1597 26 21 282 1240
internal_value=4.28456e-06 -0.0251779 0.0260314 0.0259456 0.0259474 0.0259474
internal_weight=228.075 115.919 112.156 110.118 108.561 107.084
internal_count=3195 1609 1586 1569 1543 1522
is_linear=0
shrinkage=0.05


Tree=106
num_leaves=7
num_cat=0
split_feature=13 5 9 13 13 2
split_gain=56.7625 2.0261 0.0153348 7.98832e-06 1.32232e-11 7.10543e-15
threshold=21440.441461015005 1772.5000000000002 21402.000000000004 21509.969781528227 21565.592510809642 1008532.5000000001
decision_type=2 2 2 2 2 2
left_child=1 -1 -2 -4 -5 -6
right_child=2 -3 3 4 5 -7
leaf_value=-0.033015836348844328 -0.030364233860874286 0.02591688969236481 -0.025782585371682987 -0.025899628748061926 -0.025899474465480989 -0.025899474465480989
leaf_weight=1.4782160744070996 1.9576254375278939 108.99992690235376 1.4825571104884137 1.4082035571336735 62.487401187419891 39.557475000619888
leaf_count=12 17 1597 26 21 932 590
internal_value=-4.1957e-06 0.0251284 -0.0259796 -0.0258978 -0.0258995 -0.0258995
internal_weight=217.371 110.478 106.893 104.936 103.453 102.045
internal_count=3195 1609 1586 1569 1543 1522
is_linear=0
shrinkage=0.05


Tree=107
num_leaves=7
num_cat=0
split_feature=13 5 9 13 13 2
split_gain=56.7625 2.0261 0.0153348 7.98832e-06 1.32232e-11 7.10543e-15
threshold=21440.441461015005 1772.5000000000002 21402.000000000004 21509.969781528227 21565.592510809642 1008532.5000000001
decision_type=2 2 2 2 2 2
left_child=1 -1 -2 -4 -5 -6
right_child=2 -3 3 4 5 -7
leaf_value=0.033015836348844328 0.030364233860874286 -0.02591688969236481 0.025782585371682987 0.025899628748061926 0.025899474465480989 0.025899474465480989
leaf_weight=1.4782160744070996 1.9576254375278939 108.99992690235376 1.4825571104884137 1.4082035571336735 62.487401187419891 39.557475000619888
leaf_count=12 17 1597 26 21 932 590
internal_value=4.1957e-06 -0.0251284 0.0259796 0.0258978 0.0258995 0.0258995
internal_weight=217.371 110.478 106.893 104.936 103.453 102.045
internal_count=3195 1609 1586 1569 1543 1522
is_linear=0
shrinkage=0.05


Tree=108
num_leaves=8
num_cat=0
split_feature=13 5 9 13 13 1 1
split_gain=53.8901 1.9217 0.0131815 6.83073e-06 1.14433e-11 3.55271e-15 3.55271e-15
threshold=21440.441461015005 1772.5000000000002 21402.000000000004 21509.969781528227 21565.592510809642 1053649.0000000002 1038416.0000000001
decision_type=2 2 2 2 2 2 2
left_child=1 -1 -2 -4 -5 6 -6
right_child=2 -3 3 4 5 -7 -8
leaf_value=-0.032732816311708539 -0.030079105870007134 0.02587057679159931 -0.025743325305378803 -0.02585421472095489 -0.025854067699615131 -0.025854067699615131 -0.025854067699615131
leaf_weight=1.4179749637842167 1.879355203360318 103.86486983299255 1.4123483970761288 1.3418181985616673 85.095945864915848 3.6414931789040557 8.4968174174427968
leaf_count=12 17 1597 26 21 1332 57 133
internal_value=-4.10714e-06 0.0250813 -0.0259305 -0.0258525 -0.0258541 -0.0258541 -0.0258541
internal_weight=207.151 105.283 101.868 99.9884 98.5761 97.2343 93.5928
internal_count=3195 1609 1586 1569 1543 1522 1465
is_linear=0
shrinkage=0.05


Tree=109
num_leaves=8
num_cat=0
split_feature=13 5 9 13 13 1 1
split_gain=53.8901 1.9217 0.0131815 6.83073e-06 1.14433e-11 3.55271e-15 3.55271e-15
threshold=21440.441461015005 1772.5000000000002 21402.000000000004 21509.969781528227 21565.592510809642 1053649.0000000002 1038416.0000000001
decision_type=2 2 2 2 2 2 2
left_child=1 -1 -2 -4 -5 6 -6
right_child=2 -3 3 4 5 -7 -8
leaf_value=0.032732816311708539 0.030079105870007134 -0.02587057679159931 0.025743325305378803 0.02585421472095489 0.025854067699615131 0.025854067699615131 0.025854067699615131
leaf_weight=1.4179749637842167 1.879355203360318 103.86486983299255 1.4123483970761288 1.3418181985616673 85.095945864915848 3.6414931789040557 8.4968174174427968
leaf_count=12 17 1597 26 21 1332 57 133
internal_value=4.10714e-06 -0.0250813 0.0259305 0.0258525 0.0258541 0.0258541 0.0258541
internal_weight=207.151 105.283 101.868 99.9884 98.5761 97.2343 93.5928
internal_count=3195 1609 1586 1569 1543 1522 1465
is_linear=0
shrinkage=0.05


Tree=110
num_leaves=6
num_cat=0
split_feature=13 5 9 13 13
split_gain=51.1678 1.82286 0.0113292 5.84318e-06 9.71312e-12
threshold=21440.441461015005 1772.5000000000002 21402.000000000004 21509.969781528227 21565.592510809642
decision_type=2 2 2 2 2
left_child=1 -1 -2 -4 -5
right_child=2 -3 3 4 -6
leaf_value=-0.032451906440162784 -0.029809842075038662 0.025826675505363009 -0.025706085646085203 -0.025811167865636992 -0.025811029119615671
leaf_weight=1.3602015748620022 1.8034364152699698 98.963018927723169 1.3453644216060627 1.2784519530832756 92.642426520586014
leaf_count=12 17 1597 26 21 1522
internal_value=-4.02381e-06 0.0250365 -0.0258839 -0.0258095 -0.025811
internal_weight=197.393 100.323 97.0697 95.2662 93.9209
internal_count=3195 1609 1586 1569 1543
is_linear=0
shrinkage=0.05


Tree=111
num_leaves=6
num_cat=0
split_feature=13 5 9 13 13
split_gain=51.1678 1.82286 0.0113292 5.84318e-06 9.71312e-12
threshold=21440.441461015005 1772.5000000000002 21402.000000000004 21509.969781528227 21565.592510809642
decision_type=2 2 2 2 2
left_child=1 -1 -2 -4 -5
right_child=2 -3 3 4 -6
leaf_value=0.032451906440162784 0.029809842075038662 -0.025826675505363009 0.025706085646085203 0.025811167865636992 0.025811029119615671
leaf_weight=1.3602015748620022 1.8034364152699698 98.963018927723169 1.3453644216060627 1.2784519530832756 92.642426520586014
leaf_count=12 17 1597 26 21 1522
internal_value=4.02381e-06 -0.0250365 0.0258839 0.0258095 0.025811
internal_weight=197.393 100.323 97.0697 95.2662 93.9209
internal_count=3195 1609 1586 1569 1543
is_linear=0
shrinkage=0.05


Tree=112
num_leaves=8
num_cat=0
split_feature=13 5 9 13 13 1 1
split_gain=48.5874 1.72927 0.00973639 4.99978e-06 8.29559e-12 3.55271e-15 3.55271e-15
threshold=21440.441461015005 1772.5000000000002 21402.000000000004 21509.969781528227 21565.592510809642 1059688.5000000002 1037218.0000000001
decision_type=2 2 2 2 2 2 2
left_child=1 -1 -2 -4 -5 6 -6
right_child=2 -3 3 4 5 -7 -8
leaf_value=-0.032173980863345143 -0.029555534096538834 0.025785058630549675 -0.025670758959861168 -0.025770355676747427 -0.025770224300021228 -0.025770224300021228 -0.025770224300021228
leaf_weight=1.3047593012452114 1.7298684529960144 94.284635201096535 1.2814669162034977 1.21797839924693 75.850432276725769 1.3337614238262165 11.076018780469893
leaf_count=12 17 1597 26 21 1308 23 191
internal_value=-3.94025e-06 0.0249939 -0.0258396 -0.0257688 -0.0257702 -0.0257702 -0.0257702
internal_weight=188.079 95.5894 92.4895 90.7597 89.4782 88.2602 86.9265
internal_count=3195 1609 1586 1569 1543 1522 1499
is_linear=0
shrinkage=0.05


Tree=113
num_leaves=8
num_cat=0
split_feature=13 5 9 13 13 1 1
split_gain=48.5874 1.72927 0.00973639 4.99978e-06 8.29559e-12 3.55271e-15 3.55271e-15
threshold=21440.441461015005 1772.5000000000002 21402.000000000004 21509.969781528227 21565.592510809642 1059688.5000000002 1037218.0000000001
decision_type=2 2 2 2 2 2 2
left_child=1 -1 -2 -4 -5 6 -6
right_child=2 -3 3 4 5 -7 -8
leaf_value=0.032173980863345143 0.029555534096538834 -0.025785058630549675 0.025670758959861168 0.025770355676747427 0.025770224300021228 0.025770224300021228 0.025770224300021228
leaf_weight=1.3047593012452114 1.7298684529960144 94.284635201096535 1.2814669162034977 1.21797839924693 75.850432276725769 1.3337614238262165 11.076018780469893
leaf_count=12 17 1597 26 21 1308 23 191
internal_value=3.94025e-06 -0.0249939 0.0258396 0.0257688 0.0257702 0.0257702 0.0257702
internal_weight=188.079 95.5894 92.4895 90.7597 89.4782 88.2602 86.9265
internal_count=3195 1609 1586 1569 1543 1522 1499
is_linear=0
shrinkage=0.05


Tree=114
num_leaves=9
num_cat=0
split_feature=13 5 9 13 13 1 1 2
split_gain=46.141 1.64066 0.00836698 4.27926e-06 7.14451e-12 3.55271e-15 2.22045e-16 1.11022e-16
threshold=21440.441461015005 1772.5000000000002 21402.000000000004 21509.969781528227 21565.592510809642 1050000.0000000002 1055016.0000000002 1043873.0000000001
decision_type=2 2 2 2 2 2 2 2
left_child=1 -1 -2 -4 -5 -6 -7 -8
right_child=2 -3 3 4 5 6 7 -9
leaf_value=-0.031899844343147368 -0.029315325482450513 0.025745599233788292 -0.02563724260335163 -0.025731656546588152 -0.025731531614762704 -0.025731531614762704 -0.025731531614762684 -0.025731531614762684
leaf_weight=1.25152277201414 1.658643316477536 89.82030687853694 1.2205224484205235 1.1602753624320019 79.27268985658884 2.2649339959025374 1.4362996071577074 1.1048458516597746
leaf_count=12 17 1597 26 21 1435 41 26 20
internal_value=-3.85945e-06 0.0249534 -0.0257977 -0.0257302 -0.0257315 -0.0257315 -0.0257315 -0.0257315
internal_weight=179.19 91.0718 88.1182 86.4596 85.239 84.0788 4.80608 2.54115
internal_count=3195 1609 1586 1569 1543 1522 87 46
is_linear=0
shrinkage=0.05


Tree=115
num_leaves=9
num_cat=0
split_feature=13 5 9 13 13 1 1 2
split_gain=46.141 1.64066 0.00836698 4.27926e-06 7.14451e-12 3.55271e-15 2.22045e-16 1.11022e-16
threshold=21440.441461015005 1772.5000000000002 21402.000000000004 21509.969781528227 21565.592510809642 1050000.0000000002 1055016.0000000002 1043873.0000000001
decision_type=2 2 2 2 2 2 2 2
left_child=1 -1 -2 -4 -5 -6 -7 -8
right_child=2 -3 3 4 5 6 7 -9
leaf_value=0.031899844343147368 0.029315325482450513 -0.025745599233788292 0.02563724260335163 0.025731656546588152 0.025731531614762704 0.025731531614762704 0.025731531614762684 0.025731531614762684
leaf_weight=1.25152277201414 1.658643316477536 89.82030687853694 1.2205224484205235 1.1602753624320019 79.27268985658884 2.2649339959025374 1.4362996071577074 1.1048458516597746
leaf_count=12 17 1597 26 21 1435 41 26 20
internal_value=3.85945e-06 -0.0249534 0.0257977 0.0257302 0.0257315 0.0257315 0.0257315 0.0257315
internal_weight=179.19 91.0718 88.1182 86.4596 85.239 84.0788 4.80608 2.54115
internal_count=3195 1609 1586 1569 1543 1522 87 46
is_linear=0
shrinkage=0.05


Tree=116
num_leaves=9
num_cat=0
split_feature=13 5 9 13 13 1 2 2
split_gain=43.8213 1.55675 0.00718982 3.66362e-06 6.25988e-12 3.55271e-15 2.22045e-16 1.11022e-16
threshold=21440.441461015005 1772.5000000000002 21402.000000000004 21509.969781528227 21565.592510809642 1049350.5000000002 1051554.5000000002 1041301.5000000001
decision_type=2 2 2 2 2 2 2 2
left_child=1 -1 -2 -4 -5 -6 7 -7
right_child=2 -3 3 4 5 6 -8 -9
leaf_value=-0.031630237203213882 -0.029088396795534877 0.025708180737895565 -0.02560543896721126 -0.025694956389831314 -0.025694836566844653 -0.02569483656684465 -0.025694836566844639 -0.025694836566844632
leaf_weight=1.2003771811723698 1.5897470694035281 85.560943447053432 1.1624025106430043 1.1052246913313855 75.195759654045105 2.3679560422897334 1.3681523799896238 1.1576673984527586
leaf_count=12 17 1597 26 21 1429 45 26 22
internal_value=-3.77991e-06 0.0249149 -0.0257579 -0.0256936 -0.0256948 -0.0256948 -0.0256948 -0.0256948
internal_weight=170.708 86.7613 83.9469 82.3572 81.1948 80.0895 4.89378 3.52562
internal_count=3195 1609 1586 1569 1543 1522 93 67
is_linear=0
shrinkage=0.05


Tree=117
num_leaves=9
num_cat=0
split_feature=13 5 9 13 13 1 2 2
split_gain=43.8213 1.55675 0.00718982 3.66362e-06 6.25988e-12 3.55271e-15 2.22045e-16 1.11022e-16
threshold=21440.441461015005 1772.5000000000002 21402.000000000004 21509.969781528227 21565.592510809642 1049350.5000000002 1051554.5000000002 1041301.5000000001
decision_type=2 2 2 2 2 2 2 2
left_child=1 -1 -2 -4 -5 -6 7 -7
right_child=2 -3 3 4 5 6 -8 -9
leaf_value=0.031630237203213882 0.029088396795534877 -0.025708180737895565 0.02560543896721126 0.025694956389831314 0.025694836566844653 0.02569483656684465 0.025694836566844639 0.025694836566844632
leaf_weight=1.2003771811723698 1.5897470694035281 85.560943447053432 1.1624025106430043 1.1052246913313855 75.195759654045105 2.3679560422897334 1.3681523799896238 1.1576673984527586
leaf_count=12 17 1597 26 21 1429 45 26 22
internal_value=3.77991e-06 -0.0249149 0.0257579 0.0256936 0.0256948 0.0256948 0.0256948 0.0256948
internal_weight=170.708 86.7613 83.9469 82.3572 81.1948 80.0895 4.89378 3.52562
internal_count=3195 1609 1586 1569 1543 1522 93 67
is_linear=0
shrinkage=0.05


Tree=118
num_leaves=7
num_cat=0
split_feature=13 5 9 13 13 1
split_gain=41.6214 1.47728 0.00617812 3.13731e-06 5.38947e-12 3.55271e-15
threshold=21440.441461015005 1772.5000000000002 21402.000000000004 21509.969781528227 21565.592510809642 1055941.0000000002
decision_type=2 2 2 2 2 2
left_child=1 -1 -2 -4 -5 -6
right_child=2 -3 3 4 5 -7
leaf_value=-0.031365812694328081 -0.028873986523750124 0.025672687730938195 -0.025575257559060566 -0.025660144208382019 -0.025660030284811459 -0.025660030284811459
leaf_weight=1.1512177139520634 1.5231590885668982 81.497763756662607 1.1069833934307087 1.0527125634253014 74.279407627880573 2.0048423111438742
leaf_count=12 17 1597 26 21 1482 40
internal_value=-3.70332e-06 0.0248782 -0.0257201 -0.0256588 -0.02566 -0.02566
internal_weight=162.616 82.649 79.9671 78.4439 77.337 76.2842
internal_count=3195 1609 1586 1569 1543 1522
is_linear=0
shrinkage=0.05


Tree=119
num_leaves=7
num_cat=0
split_feature=13 5 9 13 13 1
split_gain=41.6214 1.47728 0.00617812 3.13731e-06 5.38947e-12 3.55271e-15
threshold=21440.441461015005 1772.5000000000002 21402.000000000004 21509.969781528227 21565.592510809642 1055941.0000000002
decision_type=2 2 2 2 2 2
left_child=1 -1 -2 -4 -5 -6
right_child=2 -3 3 4 5 -7
leaf_value=0.031365812694328081 0.028873986523750124 -0.025672687730938195 0.025575257559060566 0.025660144208382019 0.025660030284811459 0.025660030284811459
leaf_weight=1.1512177139520634 1.5231590885668982 81.497763756662607 1.1069833934307087 1.0527125634253014 74.279407627880573 2.0048423111438742
leaf_count=12 17 1597 26 21 1482 40
internal_value=3.70332e-06 -0.0248782 0.0257201 0.0256588 0.02566 0.02566
internal_weight=162.616 82.649 79.9671 78.4439 77.337 76.2842
internal_count=3195 1609 1586 1569 1543 1522
is_linear=0
shrinkage=0.05


Tree=120
num_leaves=7
num_cat=0
split_feature=13 3 9 13 13 1
split_gain=39.5348 1.402 0.00530866 2.68762e-06 4.35918e-12 3.55271e-15
threshold=21440.441461015005 0.99483372180813745 21402.000000000004 21509.969781528227 21565.592510809642 1037917.0000000001
decision_type=2 2 2 2 2 2
left_child=1 -1 -2 -4 -5 -6
right_child=2 -3 3 4 5 -7
leaf_value=0.025639019875721654 -0.028671363420686505 -0.031107139960845923 -0.025546610189107893 -0.025627119858665698 -0.025627014908262882 -0.025627014908262882
leaf_weight=77.62230196967721 1.4588537886738766 1.1039487719535817 1.0541461780667294 1.0026290044188488 63.012179285287857 9.6427728906273824
leaf_count=1597 17 12 26 21 1320 202
internal_value=-3.62932e-06 0.0248433 -0.0256842 -0.0256259 -0.025627 -0.025627
internal_weight=154.897 78.7263 76.1706 74.7117 73.6576 72.655
internal_count=3195 1609 1586 1569 1543 1522
is_linear=0
shrinkage=0.05


Tree=121
num_leaves=7
num_cat=0
split_feature=13 3 9 13 13 1
split_gain=39.5348 1.402 0.00530866 2.68762e-06 4.35918e-12 3.55271e-15
threshold=21440.441461015005 0.99483372180813745 21402.000000000004 21509.969781528227 21565.592510809642 1037917.0000000001
decision_type=2 2 2 2 2 2
left_child=1 -1 -2 -4 -5 -6
right_child=2 -3 3 4 5 -7
leaf_value=-0.025639019875721654 0.028671363420686505 0.031107139960845923 0.025546610189107893 0.025627119858665698 0.025627014908262882 0.025627014908262882
leaf_weight=77.62230196967721 1.4588537886738766 1.1039487719535817 1.0541461780667294 1.0026290044188488 63.012179285287857 9.6427728906273824
leaf_count=1597 17 12 26 21 1320 202
internal_value=3.62932e-06 -0.0248433 0.0256842 0.0256259 0.025627 0.025627
internal_weight=154.897 78.7263 76.1706 74.7117 73.6576 72.655
internal_count=3195 1609 1586 1569 1543 1522
is_linear=0
shrinkage=0.05


Tree=122
num_leaves=7
num_cat=0
split_feature=13 5 9 13 13 3
split_gain=37.5555 1.3307 0.00456157 2.30265e-06 3.87601e-12 3.55271e-15
threshold=21440.441461015005 1772.5000000000002 21402.000000000004 21509.969781528227 21565.592510809642 1.0241938334416616
decision_type=2 2 2 2 2 2
left_child=1 -1 -2 -4 -5 -6
right_child=2 -3 3 4 5 -7
leaf_value=-0.030854710448089569 -0.028479847657354014 0.025607077528007605 -0.025519417265374524 -0.025595786822324291 -0.025595685410648539 -0.025595685410648539
leaf_weight=1.0584832094609726 1.3968001622706641 73.926395662128925 1.0037763714790333 0.95486826449632545 64.056715417653322 5.1372667439281932
leaf_count=12 17 1597 26 21 1409 113
internal_value=-3.55643e-06 0.0248101 -0.0256502 -0.0255946 -0.0255957 -0.0255957
internal_weight=147.534 74.9849 72.5494 71.1526 70.1489 69.194
internal_count=3195 1609 1586 1569 1543 1522
is_linear=0
shrinkage=0.05


Tree=123
num_leaves=7
num_cat=0
split_feature=13 5 9 13 13 3
split_gain=37.5555 1.3307 0.00456157 2.30265e-06 3.87601e-12 3.55271e-15
threshold=21440.441461015005 1772.5000000000002 21402.000000000004 21509.969781528227 21565.592510809642 1.0241938334416616
decision_type=2 2 2 2 2 2
left_child=1 -1 -2 -4 -5 -6
right_child=2 -3 3 4 5 -7
leaf_value=0.030854710448089569 0.028479847657354014 -0.025607077528007605 0.025519417265374524 0.025595786822324291 0.025595685410648539 0.025595685410648539
leaf_weight=1.0584832094609726 1.3968001622706641 73.926395662128925 1.0037763714790333 0.95486826449632545 64.056715417653322 5.1372667439281932
leaf_count=12 17 1597 26 21 1409 113
internal_value=3.55643e-06 -0.0248101 0.0256502 0.0255946 0.0255957 0.0255957
internal_weight=147.534 74.9849 72.5494 71.1526 70.1489 69.194
internal_count=3195 1609 1586 1569 1543 1522
is_linear=0
shrinkage=0.05


Tree=124
num_leaves=8
num_cat=0
split_feature=13 5 9 13 13 1 3
split_gain=35.6775 1.26314 0.00391962 1.97331e-06 3.24363e-12 3.55271e-15 1.11022e-16
threshold=21440.441461015005 1772.5000000000002 21402.000000000004 21509.969781528227 21565.592510809642 1054351.5000000002 0.97643890852224657
decision_type=2 2 2 2 2 2 2
left_child=1 -1 -2 -4 -5 -6 -7
right_child=2 -3 3 4 5 6 -8
leaf_value=-0.030608923652681391 -0.028298792252574041 0.025576769376584669 -0.025493604141752592 -0.02556605425540949 -0.025565959198845613 -0.025565959198845602 -0.025565959198845595
leaf_weight=1.0147415287792672 1.3369630388915528 70.402191773056984 0.9557640366256227 0.90932843089103599 63.685941807925701 0.86588636040687506 1.342123858630657
leaf_count=12 17 1597 26 21 1471 20 31
internal_value=-3.48624e-06 0.0247784 -0.0256178 -0.0255649 -0.025566 -0.025566 -0.025566
internal_weight=140.513 71.4169 69.096 67.759 66.8033 65.894 2.20801
internal_count=3195 1609 1586 1569 1543 1522 51
is_linear=0
shrinkage=0.05


Tree=125
num_leaves=8
num_cat=0
split_feature=13 5 9 13 13 1 3
split_gain=35.6775 1.26314 0.00391962 1.97331e-06 3.24363e-12 3.55271e-15 1.11022e-16
threshold=21440.441461015005 1772.5000000000002 21402.000000000004 21509.969781528227 21565.592510809642 1054351.5000000002 0.97643890852224657
decision_type=2 2 2 2 2 2 2
left_child=1 -1 -2 -4 -5 -6 -7
right_child=2 -3 3 4 5 6 -8
leaf_value=0.030608923652681391 0.028298792252574041 -0.025576769376584669 0.025493604141752592 0.02556605425540949 0.025565959198845613 0.025565959198845602 0.025565959198845595
leaf_weight=1.0147415287792672 1.3369630388915528 70.402191773056984 0.9557640366256227 0.90932843089103599 63.685941807925701 0.86588636040687506 1.342123858630657
leaf_count=12 17 1597 26 21 1471 20 31
internal_value=3.48624e-06 -0.0247784 0.0256178 0.0255649 0.025566 0.025566 0.025566
internal_weight=140.513 71.4169 69.096 67.759 66.8033 65.894 2.20801
internal_count=3195 1609 1586 1569 1543 1522 51
is_linear=0
shrinkage=0.05


Tree=126
num_leaves=6
num_cat=0
split_feature=13 3 9 13 13
split_gain=33.8956 1.19913 0.00336806 1.69146e-06 2.89191e-12
threshold=21440.441461015005 0.99483372180813745 21402.000000000004 21509.969781528227 21565.592510809642
decision_type=2 2 2 2 2
left_child=1 -1 -2 -4 -5
right_child=2 -3 3 4 -6
leaf_value=0.025548006678893793 -0.028127595869706496 -0.030370101510215766 -0.025469096086010404 -0.025537840517944339 -0.025537748548907748
leaf_weight=67.042128756642342 1.2793031204491843 0.97265100851654906 0.9100036546587934 0.86591149866580863 62.747763067483902
leaf_count=1597 17 12 26 21 1522
internal_value=-3.41923e-06 0.0247483 -0.0255872 -0.0255368 -0.0255377
internal_weight=133.818 68.0148 65.803 64.5237 63.6137
internal_count=3195 1609 1586 1569 1543
is_linear=0
shrinkage=0.05


Tree=127
num_leaves=6
num_cat=0
split_feature=13 3 9 13 13
split_gain=33.8956 1.19913 0.00336806 1.69146e-06 2.89191e-12
threshold=21440.441461015005 0.99483372180813745 21402.000000000004 21509.969781528227 21565.592510809642
decision_type=2 2 2 2 2
left_child=1 -1 -2 -4 -5
right_child=2 -3 3 4 -6
